{
  "as_of": "2026-07-15T08:38:23.354949+00:00",
  "phase": "oos_result",
  "oos_opened": true,
  "selection_end": "2024-01-01",
  "config": {
    "input_csv": "/home/pakchu/rllm/data/cache_market_ext_5m_wavefull_2020-01-01_2026-06-01.csv.gz",
    "funding_csv": "/home/pakchu/rllm/data/binance_um_aux_btc_2020_2026/BTCUSDT_funding_2020-01-01_2026-06-01.csv.gz",
    "premium_csv": "/home/pakchu/rllm/data/binance_um_aux_btc_2020_2026/BTCUSDT_premium_1h_2020-01-01_2026-06-01.csv.gz",
    "output": "results/minimal_stress_pair_context_formula_expert_selection_2026-07-15.json",
    "exclude_from": "2026-06-02",
    "window_size": 144,
    "leverage": 0.45,
    "operating_leverage": 0.9,
    "fee_rate": 0.0005,
    "slippage_rate": 0.0001,
    "funding_tolerance": "12h",
    "offline_premium_tolerance": "2h",
    "live_premium_tolerance": "10min",
    "manifest_output": "results/minimal_stress_pair_context_formula_expert_manifest_2026-07-15.json",
    "docs_output": "docs/minimal-stress-pair-context-formula-expert-selection-2026-07-15.md",
    "open_oos": false
  },
  "expert_spec": {
    "name": "minimal_stress_pair_context_formula_expert",
    "entry": "funding relief OR premium discount after train-only quantiles",
    "core_features": [
      "a_ret_z_12",
      "a_ret_vol_corr_288",
      "a_absret_vol_rank",
      "a_vwap_gap_z",
      "a_clv_rank_288",
      "vp_ret_rank_72",
      "vp_imb_z_144",
      "vp_vpin_z_144",
      "fq_ret_vol_corr_72",
      "fq_signed_vol_pressure_rank",
      "x101_volcorr_reversal_up",
      "x101_gap_revert_up",
      "x101_vwap_exhaust_down",
      "vx_toxic_selloff",
      "vx_lowtox_momo_long"
    ],
    "pair_contexts": [
      "dxy_momentum",
      "kimchi_premium_change",
      "usdkrw_momentum",
      "dollar_flow_rel_4h_30d",
      "quote_vol_z_1d"
    ],
    "context_pairs": [
      [
        "dxy_momentum",
        "kimchi_premium_change"
      ],
      [
        "dxy_momentum",
        "usdkrw_momentum"
      ],
      [
        "dxy_momentum",
        "dollar_flow_rel_4h_30d"
      ],
      [
        "dxy_momentum",
        "quote_vol_z_1d"
      ],
      [
        "kimchi_premium_change",
        "usdkrw_momentum"
      ],
      [
        "kimchi_premium_change",
        "dollar_flow_rel_4h_30d"
      ],
      [
        "kimchi_premium_change",
        "quote_vol_z_1d"
      ],
      [
        "usdkrw_momentum",
        "dollar_flow_rel_4h_30d"
      ],
      [
        "usdkrw_momentum",
        "quote_vol_z_1d"
      ],
      [
        "dollar_flow_rel_4h_30d",
        "quote_vol_z_1d"
      ]
    ],
    "tail_grid": [
      0.2,
      0.33
    ],
    "actions": {
      "sides_time": [
        [
          1,
          1000000
        ],
        [
          -1,
          1000000
        ]
      ],
      "tp4_time": [
        [
          1,
          400
        ],
        [
          1,
          1000000
        ],
        [
          -1,
          400
        ],
        [
          -1,
          1000000
        ]
      ]
    },
    "ridge_grid": [
      0.1,
      1.0,
      10.0,
      100.0
    ],
    "risk_grid": [
      0.25,
      0.5
    ],
    "weight_modes": [
      "uniform",
      "year"
    ],
    "hold_bars": 576,
    "stop_bps": 1000000,
    "leverage": 0.45,
    "design": "core + source + core*source + each context low/high responsibility and core interactions",
    "target": "absolute risk-adjusted utility for each executable action; neutral utility is zero",
    "label_purge": "48-hour counterfactual exit must precede 2023-01-01",
    "grid_cells": 640,
    "selection_rule": "absolute selection gate and lexicographically beat long time-only base"
  },
  "spec_hash": "8a3b317aa9d9dd1f5b5629a6f1ad6d86ab49256c04ba097a7ad02bdc05f0e26f",
  "implementation_hash": "54edc186df405e54410f0ac7a6ddeadaa02eea51f2d150d8a56d5048219c1114",
  "frozen_execution_config": {
    "input_csv": "data/cache_market_ext_5m_wavefull_2020-01-01_2026-06-01.csv.gz",
    "funding_csv": "data/binance_um_aux_btc_2020_2026/BTCUSDT_funding_2020-01-01_2026-06-01.csv.gz",
    "premium_csv": "data/binance_um_aux_btc_2020_2026/BTCUSDT_premium_1h_2020-01-01_2026-06-01.csv.gz",
    "exclude_from": "2026-06-02",
    "window_size": 144,
    "leverage": 0.45,
    "fee_rate": 0.0005,
    "slippage_rate": 0.0001,
    "funding_tolerance": "12h",
    "live_premium_tolerance": "10min"
  },
  "source_prefix_hashes": {
    "market": "a7639b9bf7fe7eaf6f6885af758fc4273a6c76ef0d085f00a2a3067675e04b6c",
    "funding": "176afb9631ce5674bca3f375599deab5a6cbf39833edf6c5e26d7ccf33160485",
    "premium": "fdaeda538c62bdc15bce35100430a5d3586cea37d3c4021c437c1c0d9e935529"
  },
  "selected_feature_prefix_hash": "65ac461ac0e147b72833291a94bba986b00f29eb406a5454a0662819b23b2906",
  "base_thresholds": {
    "funding_rate_q10": -2.146e-05,
    "trend_96_q70": 0.009017208457522975,
    "premium_change_q20": -0.00026813,
    "daily_momentum_4_q90": 0.09605902316678483
  },
  "base_activation_hash": "02f85cf40fef267a25924ba57f1163764bd574b149a9eb6847cbb4a8b419dc3c",
  "funding_activation_hash": "cc0d0f73d2cfef9f26c30765d5bb618fc52310332cfe63e049c69312c36f4262",
  "premium_activation_hash": "c2dfce3441b76bab5a8e133d9317dfcabcc568253d6221ce830c077527ab56b1",
  "base_score": [
    1.221301942119578,
    1.2272029135936964,
    156.0
  ],
  "base_stats": {
    "train": {
      "absolute_return_pct": 51.8648810216976,
      "cagr_pct": 18.17169253558999,
      "strict_mdd_pct": 14.878951640781713,
      "cagr_to_strict_mdd": 1.221301942119578,
      "trades": 125,
      "mean_net_bps": 36.75274247681411,
      "win_rate": 0.52
    },
    "train_2020h2": {
      "absolute_return_pct": 15.231674301307162,
      "cagr_pct": 32.50232918483087,
      "strict_mdd_pct": 4.72488582587639,
      "cagr_to_strict_mdd": 6.878966049682738,
      "trades": 18,
      "mean_net_bps": 79.79578027770027,
      "win_rate": 0.7777777777777778
    },
    "train_2021": {
      "absolute_return_pct": 30.878566193732304,
      "cagr_pct": 30.90269128481047,
      "strict_mdd_pct": 14.018247637993975,
      "cagr_to_strict_mdd": 2.204461790292119,
      "trades": 51,
      "mean_net_bps": 57.899834400767645,
      "win_rate": 0.5294117647058824
    },
    "train_2022": {
      "absolute_return_pct": -1.1006417340676866,
      "cagr_pct": -1.1013914314505824,
      "strict_mdd_pct": 14.878951640781734,
      "cagr_to_strict_mdd": -0.07402345662793725,
      "trades": 55,
      "mean_net_bps": 0.4200468778942999,
      "win_rate": 0.41818181818181815
    },
    "select_2023": {
      "absolute_return_pct": 20.252484310715758,
      "cagr_pct": 20.26767524951245,
      "strict_mdd_pct": 8.769049826536468,
      "cagr_to_strict_mdd": 2.3112738153430725,
      "trades": 31,
      "mean_net_bps": 61.37698897199141,
      "win_rate": 0.5483870967741935
    },
    "select_2023_h1": {
      "absolute_return_pct": 21.73063010618792,
      "cagr_pct": 48.70759950914658,
      "strict_mdd_pct": 8.769049826536468,
      "cagr_to_strict_mdd": 5.55448999294656,
      "trades": 15,
      "mean_net_bps": 134.6610502404544,
      "win_rate": 0.8
    },
    "select_2023_h2": {
      "absolute_return_pct": -1.2142759748986154,
      "cagr_pct": -2.395987173332559,
      "strict_mdd_pct": 4.248244390903821,
      "cagr_to_strict_mdd": -0.5639946652934458,
      "trades": 16,
      "mean_net_bps": -7.326818467192631,
      "win_rate": 0.3125
    },
    "pre_2024": {
      "absolute_return_pct": 82.62129222410393,
      "cagr_pct": 18.766089591046352,
      "strict_mdd_pct": 15.291757689926289,
      "cagr_to_strict_mdd": 1.2272029135936964,
      "trades": 156,
      "mean_net_bps": 41.646022229060875,
      "win_rate": 0.5256410256410257
    }
  },
  "selected": {
    "spec": {
      "contexts": [
        "usdkrw_momentum",
        "dollar_flow_rel_4h_30d"
      ],
      "tail": 0.2,
      "action_set": "tp4_time",
      "actions": [
        [
          1,
          400
        ],
        [
          1,
          1000000
        ],
        [
          -1,
          400
        ],
        [
          -1,
          1000000
        ]
      ],
      "risk_lambda": 0.25,
      "ridge": 100.0,
      "weight_mode": "uniform"
    },
    "model": {
      "core_features": [
        "a_ret_z_12",
        "a_ret_vol_corr_288",
        "a_absret_vol_rank",
        "a_vwap_gap_z",
        "a_clv_rank_288",
        "vp_ret_rank_72",
        "vp_imb_z_144",
        "vp_vpin_z_144",
        "fq_ret_vol_corr_72",
        "fq_signed_vol_pressure_rank",
        "x101_volcorr_reversal_up",
        "x101_gap_revert_up",
        "x101_vwap_exhaust_down",
        "vx_toxic_selloff",
        "vx_lowtox_momo_long"
      ],
      "context_features": [
        "usdkrw_momentum",
        "dollar_flow_rel_4h_30d"
      ],
      "design": {
        "core_mean": [
          0.15466921749734389,
          0.02245352495478868,
          0.46792139381471143,
          -0.07069941564743228,
          0.4828278849676066,
          0.5404260072247739,
          0.32481215182327855,
          -0.054518686673536584,
          0.09843286874728653,
          0.5035240346043254,
          0.8626845669204902,
          0.30457604559316753,
          1.1102139109070464,
          1.172476576342981,
          1.2519773089851112
        ],
        "core_scale": [
          1.0791249903956641,
          0.1922835448122491,
          0.10939066027976108,
          0.9202264045140056,
          0.21473023457978271,
          0.25409599548442496,
          1.221819759924294,
          1.1965210092645429,
          0.2817328370124781,
          0.09575252744878962,
          0.6776256920926619,
          0.5552108477010926,
          0.8893556784558904,
          1.2544718878647891,
          1.1231057954231953
        ],
        "contexts": {
          "usdkrw_momentum": {
            "mean": -0.0003996034733060004,
            "scale": 0.00267756427133271,
            "low_threshold": -0.0016093911398117596,
            "high_threshold": 0.0004658222593362802
          },
          "dollar_flow_rel_4h_30d": {
            "mean": 0.11028575038552495,
            "scale": 0.5162782890237811,
            "low_threshold": -0.33187024282027444,
            "high_threshold": 0.5486730452990237
          }
        },
        "dimensions": 103
      },
      "ridge_model": {
        "intercept": [
          -0.0026063975337684347,
          0.00034546515153344913,
          -0.011868265168561654,
          -0.013818780869201058
        ],
        "coefficients": [
          [
            0.0013734271588962093,
            0.001564735809757687,
            -0.0016161386928637913,
            -0.0021082936726054403
          ],
          [
            0.0007087480661595891,
            -0.00022080513132625212,
            0.0004792568399257503,
            0.00033981352999305027
          ],
          [
            -0.00022141722018530023,
            0.00038015587227196974,
            -0.00029045945379803666,
            -0.00011916351488100491
          ],
          [
            0.00015269584645487646,
            -0.001278406728075293,
            0.0020287114211114577,
            0.0017835251371069942
          ],
          [
            0.0009045468724415992,
            0.0018426637848566417,
            -0.0016207137498239904,
            -0.0015325286264719527
          ],
          [
            -0.0011629587934150313,
            -0.0005665472516003535,
            0.0007704088227886428,
            0.0002621838540540122
          ],
          [
            -0.0010940261217071176,
            -0.0008643182279724005,
            -0.0010586328322083137,
            0.0003226884600756723
          ],
          [
            -0.0016239587000056194,
            -0.001933101024133124,
            0.0004620420520423845,
            0.0019629525421953984
          ],
          [
            -0.0002823328564396426,
            -0.0006784167468921617,
            0.00035310011135043773,
            0.0013358780785379862
          ],
          [
            0.00036762288802608275,
            0.0005553046722865497,
            -0.0008182182148129023,
            -0.000618767468367623
          ],
          [
            -0.0012622746133182977,
            -0.0014412354098500477,
            0.0004123785800617275,
            0.0011899214648066877
          ],
          [
            -0.0013558030917585884,
            -0.000504849530048873,
            -0.00048350737540861375,
            -0.0003570761659300398
          ],
          [
            0.00034011137704616034,
            -0.0002305998569134008,
            0.0008232725237490696,
            0.000933170100318538
          ],
          [
            0.0005102746372081426,
            -0.00011337529823439712,
            -0.0008120808912252453,
            2.9284799169323992e-05
          ],
          [
            -0.0002693689085064874,
            -0.0009959831127564502,
            0.0010018956705598546,
            0.0008682855177776542
          ],
          [
            0.0017672075399853594,
            0.001630793729523782,
            -0.001751574274204936,
            -0.0010516236248991786
          ],
          [
            0.00023664107820513494,
            -0.0004082637110761421,
            0.0002826908180176039,
            0.0003247813426750549
          ],
          [
            0.0006667563746099756,
            0.0008180245327144068,
            0.0009423214739382967,
            -0.0007143949262666389
          ],
          [
            -0.0012205732728721823,
            -0.00030504698894542285,
            0.0003348683341370114,
            0.0003499435920950943
          ],
          [
            -0.00034537773534854894,
            -0.0013014172561500276,
            0.0005016711706635856,
            0.0009858682191198947
          ],
          [
            0.0006083189476467575,
            0.0010719212507449654,
            -0.001101745431217536,
            -0.0006871757250650508
          ],
          [
            0.0007732102959791471,
            0.001265699481804415,
            -0.0011800525584522495,
            -0.0016970451981254005
          ],
          [
            0.0023102483509934916,
            0.003037099965445398,
            -0.0023381365794584146,
            -0.002957438847542171
          ],
          [
            -0.002394100786253859,
            -0.003678361972598092,
            0.0040752770281220815,
            0.004041374608235124
          ],
          [
            0.0002514159286099096,
            -0.00013178767730140736,
            0.0004544476087934024,
            0.0005402646201278455
          ],
          [
            0.0007468254473452625,
            -0.00025421187241690555,
            0.0004937785931070315,
            0.00046030712525799725
          ],
          [
            -0.00029934460696163064,
            -0.0026033946606247335,
            0.0022350550689407807,
            0.002449178938371517
          ],
          [
            -0.0002190194793380417,
            -0.0004266396811377707,
            -0.0002475212031337503,
            0.0002614200561040754
          ],
          [
            0.0009932257341953162,
            0.0011647334837078254,
            -0.0012849949468794386,
            -0.0011587786758614307
          ],
          [
            0.0014860573884619322,
            0.0027967090071683944,
            -0.0006678614159551241,
            -0.002509201587038653
          ],
          [
            -3.829643762915635e-05,
            0.0006786643612630916,
            0.00040603189884107877,
            -0.00022811894502108962
          ],
          [
            -0.0012271579595176587,
            0.00019458624479392041,
            -0.00046255161274407755,
            -0.0004191932277824344
          ],
          [
            -0.0009150414222938063,
            -0.001761021190758542,
            0.003739246011893453,
            0.0035565652668060736
          ],
          [
            0.0013740477500469859,
            0.0010377695477411712,
            -0.0003046693143009912,
            -0.00020074949159848592
          ],
          [
            0.001067321123238085,
            0.0011491596395492743,
            -0.00120584880598539,
            -0.000815175498476843
          ],
          [
            -0.0020442816198813626,
            -0.0012332537341652493,
            0.0008462747501631434,
            0.0016577876096455669
          ],
          [
            -0.006277113257027123,
            -0.009326093724241473,
            0.009177289373205774,
            0.00993228472809747
          ],
          [
            -0.0007526158778541833,
            -0.0010489417684505758,
            0.0004902974432165144,
            0.0012245154196009061
          ],
          [
            -0.001408871176523478,
            -0.002727480674626169,
            0.0020308807692177586,
            0.0028097707551170857
          ],
          [
            -0.00014741050298762188,
            0.0004493477719776305,
            -0.0006315664906680991,
            -0.0005112004415165708
          ],
          [
            0.0005665570755696572,
            0.0008190870738346437,
            -0.0006593151368445658,
            -0.0009087943437108214
          ],
          [
            0.0014567240903762438,
            0.0015789490619643302,
            -0.0022398832959639506,
            -0.0019462529419254583
          ],
          [
            -0.00019535499248686874,
            0.0002423100783720093,
            -0.0009862981557376125,
            -0.00047643159619688264
          ],
          [
            0.0015225810778376975,
            0.0008472069682626244,
            0.0014133163850573753,
            -0.00040561760008276363
          ],
          [
            0.000705370277513516,
            0.001037833585313146,
            0.0002515907401494829,
            -0.0013990675395793887
          ],
          [
            -0.0007162341204444747,
            -0.0004508372923405276,
            0.0006207590518849788,
            0.0003071891212335196
          ],
          [
            -0.000548005240070345,
            0.0003950760219763792,
            -0.000533919471041082,
            -0.0004837953943596644
          ],
          [
            0.0005904813445008176,
            0.0006408959468258169,
            0.00019173312272907053,
            -0.0005050308893175756
          ],
          [
            -0.0006156520399789427,
            -0.0007082531225060451,
            0.0009808116924864751,
            0.0007760913248381192
          ],
          [
            0.001037465660735227,
            0.0016227542498537786,
            -0.0017611396653516743,
            -0.001623842012793804
          ],
          [
            -3.181866655283223e-06,
            -4.44292384160143e-05,
            0.0001002015740505556,
            -0.00027806510287550307
          ],
          [
            -0.0012295114209341118,
            -0.0016866248294206826,
            0.00017117643020933226,
            0.001970707047269304
          ],
          [
            0.0008102669517440608,
            0.0010723232199357274,
            -0.00113872414036295,
            -0.0008719287639998736
          ],
          [
            -0.00015210510954917576,
            -0.0003890666970567028,
            -9.455957100106598e-05,
            0.0003786972178641918
          ],
          [
            -0.0003089087039722439,
            0.0006226597955344262,
            -0.0014161446245594136,
            -0.0009209277341402947
          ],
          [
            -0.0003427793950822884,
            -2.0426978033015277e-05,
            0.00027931317675164885,
            0.00017707524361162405
          ],
          [
            0.000578345261810077,
            0.0015680157008190515,
            -0.0015922401602488962,
            -0.0017757897021730765
          ],
          [
            -0.001285821590154403,
            -0.0016774189326595997,
            0.0016700677982949064,
            0.001891436873198056
          ],
          [
            0.001768262853389084,
            0.004504417482890292,
            -0.004087963689876385,
            -0.005124904350277015
          ],
          [
            7.2440789976717596e-06,
            -0.0004896430786912603,
            -0.00042216383301480484,
            6.572605375104085e-05
          ],
          [
            0.0014957553498067778,
            0.0016599333464582277,
            -0.0028399509814281375,
            -0.0020032002685969295
          ],
          [
            0.0006495414934566046,
            2.9765402342667057e-05,
            -0.00025041764620148665,
            2.5912972845059476e-06
          ],
          [
            -0.0009794997613732654,
            -0.002027587684362576,
            0.001697270896787017,
            0.0022015199260002633
          ],
          [
            0.0003650123388195784,
            -3.021496882034231e-05,
            0.00015698036403475403,
            -4.663099781255059e-05
          ],
          [
            0.0006927511436381359,
            0.0011177662112303195,
            -0.001203147131646117,
            -0.0012742494865886128
          ],
          [
            0.0006943145371505207,
            -0.0007892738337782475,
            0.0007558489633855245,
            0.0013852722390764152
          ],
          [
            -0.00015698071500980888,
            -0.00010573944665831979,
            -0.0007681812145583254,
            0.0003313082997542792
          ],
          [
            0.0019425174168189042,
            0.00042171670803700244,
            3.8218194030610297e-05,
            -0.0008486285472240041
          ],
          [
            -0.003107030953129284,
            -0.004268545702235939,
            0.003935928323834071,
            0.004880556275378881
          ],
          [
            -0.0020160379028057907,
            -0.0027853336924281826,
            0.002521036199932713,
            0.003031447827112404
          ],
          [
            -0.0003432334640824269,
            -0.00031730584618234575,
            -3.708524189085774e-05,
            0.0007473093252653597
          ],
          [
            -0.0006938134645951038,
            -0.0008420388420341968,
            0.0009035866414552828,
            0.0008653620181416406
          ],
          [
            0.00047332612912607473,
            -0.0002813537097317088,
            -0.0006254795733582477,
            0.000862453103740207
          ],
          [
            -0.0012165960934312815,
            -0.0006135413047727229,
            0.00016137457639180426,
            0.0004139094108048597
          ],
          [
            0.0005585435185898756,
            0.0012291126392097822,
            -0.0015745798259446575,
            -0.0012608902419476093
          ],
          [
            0.00014246203472075057,
            -0.0003032861894211925,
            0.0010320731951692056,
            0.00038730870542231935
          ],
          [
            3.934413964398183e-06,
            0.0003702629299089085,
            -0.00013827332763970625,
            -0.0003162857009426882
          ],
          [
            0.00034322319953183184,
            -0.0008410394051398177,
            0.001380412337143503,
            0.001306346520783645
          ],
          [
            0.0006650125038516272,
            -1.1911920484842243e-05,
            0.00028745320293656427,
            0.0006735053082296968
          ],
          [
            3.685553864230865e-05,
            -0.0004286603769361641,
            0.000926234866037403,
            0.0002586974526827632
          ],
          [
            0.00045345577688694677,
            0.0006083483548239171,
            -0.0006179928003035002,
            -0.0008502867778206777
          ],
          [
            -0.0008618984743892932,
            -0.00225557192386477,
            0.0030425167570151896,
            0.002648997626107926
          ],
          [
            -0.0014470013047195337,
            -0.0005142698019905894,
            0.00028510387385072213,
            0.00027297476643491634
          ],
          [
            0.0004216621718558396,
            -8.406770372548489e-05,
            0.00045760299012285083,
            0.0001975190669011862
          ],
          [
            0.0002588123674047209,
            0.0003703761879003907,
            -0.001029045589238855,
            -0.0009030759966610243
          ],
          [
            0.00019670635991694022,
            -0.00039937715129842173,
            0.0003784703560293179,
            0.00047214620444485135
          ],
          [
            -0.0013473452517568372,
            -0.002297678025900822,
            0.0038451317064878312,
            0.0033905216991366558
          ],
          [
            -0.0009028696849747597,
            -0.0012956431097292916,
            0.0016447116753208252,
            0.0020168507331155792
          ],
          [
            -0.0003394369509948401,
            0.0001284012414600166,
            -0.0017767748536845463,
            -0.0001689452523698083
          ],
          [
            -0.0004072788380374894,
            -0.0006001360098008632,
            -0.000395883842489433,
            0.0006631990880172268
          ],
          [
            -0.0003729402047038613,
            -0.00037809010985753434,
            -7.386565131968434e-05,
            -3.289339623119692e-05
          ],
          [
            -0.0006155738777936802,
            -0.0006004026919603395,
            0.000959452331508352,
            0.0008180104006168139
          ],
          [
            -0.0006446450588737466,
            -0.0003725893780434389,
            0.0003898534064167269,
            0.00012962550058752254
          ],
          [
            -0.0013852516965116497,
            -0.0017743333518943822,
            0.0029584910769450846,
            0.002357774874005129
          ],
          [
            0.002409495697648193,
            9.578397768943728e-05,
            -0.0004607769372426744,
            1.3788272330921407e-05
          ],
          [
            0.0016074701810538015,
            0.001883038768727219,
            -0.002438886683159575,
            -0.0017916262960370932
          ],
          [
            0.0008776245048325341,
            0.00233750199272477,
            -0.0017832084249545424,
            -0.0021210756756900044
          ],
          [
            -0.0008864180333979089,
            -0.0005955948646458855,
            0.0008714323737648007,
            0.0005710212980684412
          ],
          [
            -0.0009853363688490974,
            -0.0024474910655255568,
            0.001880351220582472,
            0.002812041195419641
          ],
          [
            0.0019725018134162274,
            0.0007985585092750906,
            -0.00025847038166637576,
            -0.0003613697023451957
          ],
          [
            0.0008973372818620901,
            0.0006839764354797785,
            0.0005244077128289942,
            -0.0006619358796206369
          ],
          [
            0.0010652597242590933,
            0.001196547089430876,
            -0.0026890764856220984,
            -0.0011588251286532357
          ],
          [
            0.0007790744575221449,
            0.00020435272354405815,
            -0.0004960123933991484,
            -0.0005891467343652634
          ]
        ],
        "coefficient_l2": 0.032807467389557914
      },
      "fit_events": 1359,
      "fit_last_exit": "2022-12-07 12:05:00",
      "weight_mode": "uniform"
    },
    "stable_action_hash": "d6492d36c28e59db54ed0786f7c9326bd979f9257f007e551b7dd46335359cfc",
    "action_counts": {
      "abstain": 674,
      "long_tp4": 136,
      "long_time": 922,
      "short_tp4": 162,
      "short_time": 66
    },
    "score": [
      3.070707908188333,
      3.591631017983954,
      158.0
    ]
  },
  "selection_stats": {
    "train": {
      "absolute_return_pct": 233.45720839109725,
      "cagr_pct": 61.813873869505606,
      "strict_mdd_pct": 14.155722642887703,
      "cagr_to_strict_mdd": 4.3667056376357385,
      "trades": 129,
      "mean_net_bps": 96.40572606215093,
      "win_rate": 0.6511627906976745
    },
    "train_2020h2": {
      "absolute_return_pct": 13.922077777851216,
      "cagr_pct": 29.529817199582475,
      "strict_mdd_pct": 5.023311689473986,
      "cagr_to_strict_mdd": 5.8785556272488995,
      "trades": 17,
      "mean_net_bps": 77.64888672676003,
      "win_rate": 0.7647058823529411
    },
    "train_2021": {
      "absolute_return_pct": 102.97619148412478,
      "cagr_pct": 103.07463356854907,
      "strict_mdd_pct": 14.155722642887703,
      "cagr_to_strict_mdd": 7.281481572425208,
      "trades": 57,
      "mean_net_bps": 128.4980843887767,
      "win_rate": 0.7017543859649122
    },
    "train_2022": {
      "absolute_return_pct": 44.0634979088095,
      "cagr_pct": 44.09952657374685,
      "strict_mdd_pct": 8.064983786168344,
      "cagr_to_strict_mdd": 5.46802420723755,
      "trades": 55,
      "mean_net_bps": 68.7593947313123,
      "win_rate": 0.5636363636363636
    },
    "select_2023": {
      "absolute_return_pct": 26.501213843089964,
      "cagr_pct": 26.521584060154236,
      "strict_mdd_pct": 8.636960874537081,
      "cagr_to_strict_mdd": 3.070707908188333,
      "trades": 29,
      "mean_net_bps": 82.99699453243642,
      "win_rate": 0.6551724137931034
    },
    "select_2023_h1": {
      "absolute_return_pct": 25.140043974175885,
      "cagr_pct": 57.232179733654135,
      "strict_mdd_pct": 8.636960874537081,
      "cagr_to_strict_mdd": 6.626425726019239,
      "trades": 15,
      "mean_net_bps": 152.87644634230023,
      "win_rate": 0.8666666666666667
    },
    "select_2023_h2": {
      "absolute_return_pct": 1.0877172691380776,
      "cagr_pct": 2.170744639690869,
      "strict_mdd_pct": 2.9619516758722653,
      "cagr_to_strict_mdd": 0.7328764535132419,
      "trades": 14,
      "mean_net_bps": 8.126153307582468,
      "win_rate": 0.42857142857142855
    },
    "pre_2024": {
      "absolute_return_pct": 321.82741626202045,
      "cagr_pct": 50.842132526173266,
      "strict_mdd_pct": 14.155722642887703,
      "cagr_to_strict_mdd": 3.591631017983954,
      "trades": 158,
      "mean_net_bps": 93.94462976872235,
      "win_rate": 0.6518987341772152
    }
  },
  "selection_schedule_hashes": {
    "train": "fa75dee9fde6b035956cde26f47dc82308d6ba587fbc6faaf2b337046fd2950e",
    "train_2020h2": "1aef3630ec587f69ed1d6fab4d851832a4d994a582b4abb45a97af166ceb55d1",
    "train_2021": "e883d18da41e5c94588b88d67b1975d49e188f3cab2cab319112964cbf4dc658",
    "train_2022": "7f8d74c7d332bbee8c6f82515119e92a0f889d465f1d4c8f32d46466bf42ca98",
    "select_2023": "c4049861c1597951368b02825cbc6af0010870e0df4fcaa10e2404099b1935bb",
    "select_2023_h1": "c2aa925e6365ab4569b936192f806b2becec900b25bd5b775dc36821fabb11e1",
    "select_2023_h2": "d13e5846eda6678a0ef79c9d9817737858c755500ebaebdb90391abae8e4c15e",
    "pre_2024": "bd4c5d9c6b23cfe77503e0ad3ec188eb8a9b0d8209a3a701c9fc8be8ffff7ac9"
  },
  "selection_grid": [
    {
      "spec": {
        "contexts": [
          "usdkrw_momentum",
          "dollar_flow_rel_4h_30d"
        ],
        "tail": 0.2,
        "action_set": "tp4_time",
        "actions": [
          [
            1,
            400
          ],
          [
            1,
            1000000
          ],
          [
            -1,
            400
          ],
          [
            -1,
            1000000
          ]
        ],
        "risk_lambda": 0.25,
        "ridge": 100.0,
        "weight_mode": "uniform"
      },
      "dimensions": 103,
      "context_thresholds": {
        "usdkrw_momentum": {
          "mean": -0.0003996034733060004,
          "scale": 0.00267756427133271,
          "low_threshold": -0.0016093911398117596,
          "high_threshold": 0.0004658222593362802
        },
        "dollar_flow_rel_4h_30d": {
          "mean": 0.11028575038552495,
          "scale": 0.5162782890237811,
          "low_threshold": -0.33187024282027444,
          "high_threshold": 0.5486730452990237
        }
      },
      "action_counts": {
        "abstain": 674,
        "long_tp4": 136,
        "long_time": 922,
        "short_tp4": 162,
        "short_time": 66
      },
      "stable_action_hash": "d6492d36c28e59db54ed0786f7c9326bd979f9257f007e551b7dd46335359cfc",
      "selection_schedule_hashes": {
        "train": "fa75dee9fde6b035956cde26f47dc82308d6ba587fbc6faaf2b337046fd2950e",
        "train_2020h2": "1aef3630ec587f69ed1d6fab4d851832a4d994a582b4abb45a97af166ceb55d1",
        "train_2021": "e883d18da41e5c94588b88d67b1975d49e188f3cab2cab319112964cbf4dc658",
        "train_2022": "7f8d74c7d332bbee8c6f82515119e92a0f889d465f1d4c8f32d46466bf42ca98",
        "select_2023": "c4049861c1597951368b02825cbc6af0010870e0df4fcaa10e2404099b1935bb",
        "select_2023_h1": "c2aa925e6365ab4569b936192f806b2becec900b25bd5b775dc36821fabb11e1",
        "select_2023_h2": "d13e5846eda6678a0ef79c9d9817737858c755500ebaebdb90391abae8e4c15e",
        "pre_2024": "bd4c5d9c6b23cfe77503e0ad3ec188eb8a9b0d8209a3a701c9fc8be8ffff7ac9"
      },
      "selection_passed": true,
      "beats_base": true,
      "accepted": true,
      "score": [
        3.070707908188333,
        3.591631017983954,
        158.0
      ],
      "stats": {
        "train": {
          "absolute_return_pct": 233.45720839109725,
          "cagr_pct": 61.813873869505606,
          "strict_mdd_pct": 14.155722642887703,
          "cagr_to_strict_mdd": 4.3667056376357385,
          "trades": 129,
          "mean_net_bps": 96.40572606215093,
          "win_rate": 0.6511627906976745
        },
        "train_2020h2": {
          "absolute_return_pct": 13.922077777851216,
          "cagr_pct": 29.529817199582475,
          "strict_mdd_pct": 5.023311689473986,
          "cagr_to_strict_mdd": 5.8785556272488995,
          "trades": 17,
          "mean_net_bps": 77.64888672676003,
          "win_rate": 0.7647058823529411
        },
        "train_2021": {
          "absolute_return_pct": 102.97619148412478,
          "cagr_pct": 103.07463356854907,
          "strict_mdd_pct": 14.155722642887703,
          "cagr_to_strict_mdd": 7.281481572425208,
          "trades": 57,
          "mean_net_bps": 128.4980843887767,
          "win_rate": 0.7017543859649122
        },
        "train_2022": {
          "absolute_return_pct": 44.0634979088095,
          "cagr_pct": 44.09952657374685,
          "strict_mdd_pct": 8.064983786168344,
          "cagr_to_strict_mdd": 5.46802420723755,
          "trades": 55,
          "mean_net_bps": 68.7593947313123,
          "win_rate": 0.5636363636363636
        },
        "select_2023": {
          "absolute_return_pct": 26.501213843089964,
          "cagr_pct": 26.521584060154236,
          "strict_mdd_pct": 8.636960874537081,
          "cagr_to_strict_mdd": 3.070707908188333,
          "trades": 29,
          "mean_net_bps": 82.99699453243642,
          "win_rate": 0.6551724137931034
        },
        "select_2023_h1": {
          "absolute_return_pct": 25.140043974175885,
          "cagr_pct": 57.232179733654135,
          "strict_mdd_pct": 8.636960874537081,
          "cagr_to_strict_mdd": 6.626425726019239,
          "trades": 15,
          "mean_net_bps": 152.87644634230023,
          "win_rate": 0.8666666666666667
        },
        "select_2023_h2": {
          "absolute_return_pct": 1.0877172691380776,
          "cagr_pct": 2.170744639690869,
          "strict_mdd_pct": 2.9619516758722653,
          "cagr_to_strict_mdd": 0.7328764535132419,
          "trades": 14,
          "mean_net_bps": 8.126153307582468,
          "win_rate": 0.42857142857142855
        },
        "pre_2024": {
          "absolute_return_pct": 321.82741626202045,
          "cagr_pct": 50.842132526173266,
          "strict_mdd_pct": 14.155722642887703,
          "cagr_to_strict_mdd": 3.591631017983954,
          "trades": 158,
          "mean_net_bps": 93.94462976872235,
          "win_rate": 0.6518987341772152
        }
      }
    },
    {
      "spec": {
        "contexts": [
          "kimchi_premium_change",
          "dollar_flow_rel_4h_30d"
        ],
        "tail": 0.2,
        "action_set": "tp4_time",
        "actions": [
          [
            1,
            400
          ],
          [
            1,
            1000000
          ],
          [
            -1,
            400
          ],
          [
            -1,
            1000000
          ]
        ],
        "risk_lambda": 0.25,
        "ridge": 100.0,
        "weight_mode": "uniform"
      },
      "dimensions": 103,
      "context_thresholds": {
        "kimchi_premium_change": {
          "mean": -0.00010959923262923176,
          "scale": 0.006074774108236574,
          "low_threshold": -0.00346509244294096,
          "high_threshold": 0.0014125494668928802
        },
        "dollar_flow_rel_4h_30d": {
          "mean": 0.11028575038552495,
          "scale": 0.5162782890237811,
          "low_threshold": -0.33187024282027444,
          "high_threshold": 0.5486730452990237
        }
      },
      "action_counts": {
        "abstain": 714,
        "long_tp4": 147,
        "long_time": 879,
        "short_tp4": 173,
        "short_time": 47
      },
      "stable_action_hash": "309fff2c6ff6d4211119cf6e03e6ab7f05b343fdd61f5855f2a9bd989f8917cb",
      "selection_schedule_hashes": {
        "train": "0876e8e3653d7b715a71c12932ebffb2e2198b8efd366026131214673bc66bf7",
        "train_2020h2": "e250eff14a99bc3b1ac20ba4163a286ad145e53659987dee5a85049489e90aab",
        "train_2021": "f9227407228aaef0e0fc6fe7e8d132b5442dc3a96736dc6acca2fe507e5bb00e",
        "train_2022": "dbe87e3f87b7d5974deb2f3a10e1f3a41ccfcd1a8196df9c40aae4083e161814",
        "select_2023": "c5ae19b3ed4958280fabd184dbbdd930c0ed29bc2b7a943e0b28c5dbebb24eaf",
        "select_2023_h1": "f3cdc944665ad9b96a8d5ae7bb8e3d80b53dc2d0a78d9f0e685593941a93bb1c",
        "select_2023_h2": "5ba804c14c5f30e8f1b54c3bfb50557cda42a33b284f31c804098fc461b65a16",
        "pre_2024": "a31e740d45112cb92c629b9096d5735de7818117c37f0afda752a87449a1033b"
      },
      "selection_passed": false,
      "beats_base": true,
      "accepted": false,
      "score": [
        2.942714455114396,
        3.1528183550936206,
        161.0
      ],
      "stats": {
        "train": {
          "absolute_return_pct": 247.2708556304712,
          "cagr_pct": 64.4600036422347,
          "strict_mdd_pct": 16.562675877740496,
          "cagr_to_strict_mdd": 3.891883420170414,
          "trades": 132,
          "mean_net_bps": 97.32300490404405,
          "win_rate": 0.6287878787878788
        },
        "train_2020h2": {
          "absolute_return_pct": 13.80430778795363,
          "cagr_pct": 29.264144021764025,
          "strict_mdd_pct": 5.401356661085577,
          "cagr_to_strict_mdd": 5.417924765568517,
          "trades": 18,
          "mean_net_bps": 72.88450818445789,
          "win_rate": 0.7222222222222222
        },
        "train_2021": {
          "absolute_return_pct": 101.11526673163146,
          "cagr_pct": 101.21153692362826,
          "strict_mdd_pct": 16.562675877740496,
          "cagr_to_strict_mdd": 6.110820357213661,
          "trades": 53,
          "mean_net_bps": 136.39234298755522,
          "win_rate": 0.660377358490566
        },
        "train_2022": {
          "absolute_return_pct": 49.018818694607404,
          "cagr_pct": 49.05953930255751,
          "strict_mdd_pct": 8.0995053705599,
          "cagr_to_strict_mdd": 6.057103126430317,
          "trades": 60,
          "mean_net_bps": 68.73577816322232,
          "win_rate": 0.5666666666666667
        },
        "select_2023": {
          "absolute_return_pct": 25.396670601900585,
          "cagr_pct": 25.416109613757776,
          "strict_mdd_pct": 8.636960874537092,
          "cagr_to_strict_mdd": 2.942714455114396,
          "trades": 29,
          "mean_net_bps": 79.87343770668843,
          "win_rate": 0.6896551724137931
        },
        "select_2023_h1": {
          "absolute_return_pct": 24.60583213143801,
          "cagr_pct": 55.8806498167482,
          "strict_mdd_pct": 8.636960874537092,
          "cagr_to_strict_mdd": 6.4699436096198815,
          "trades": 14,
          "mean_net_bps": 160.6557545969164,
          "win_rate": 0.9285714285714286
        },
        "select_2023_h2": {
          "absolute_return_pct": 0.6346721152091117,
          "cagr_pct": 1.263796750659063,
          "strict_mdd_pct": 2.9619516758722764,
          "cagr_to_strict_mdd": 0.42667703222635556,
          "trades": 15,
          "mean_net_bps": 4.476608609142192,
          "win_rate": 0.4666666666666667
        },
        "pre_2024": {
          "absolute_return_pct": 335.4660909313435,
          "cagr_pct": 52.21910851680658,
          "strict_mdd_pct": 16.562675877740496,
          "cagr_to_strict_mdd": 3.1528183550936206,
          "trades": 161,
          "mean_net_bps": 94.17991516042099,
          "win_rate": 0.639751552795031
        }
      }
    },
    {
      "spec": {
        "contexts": [
          "dxy_momentum",
          "usdkrw_momentum"
        ],
        "tail": 0.33,
        "action_set": "sides_time",
        "actions": [
          [
            1,
            1000000
          ],
          [
            -1,
            1000000
          ]
        ],
        "risk_lambda": 0.25,
        "ridge": 0.1,
        "weight_mode": "uniform"
      },
      "dimensions": 103,
      "context_thresholds": {
        "dxy_momentum": {
          "mean": -0.00032874200917224725,
          "scale": 0.0027619575402231607,
          "low_threshold": -0.0003246129414248014,
          "high_threshold": 7.07914944773881e-05
        },
        "usdkrw_momentum": {
          "mean": -0.0003996034733060004,
          "scale": 0.00267756427133271,
          "low_threshold": -0.0003947953956697416,
          "high_threshold": 0.0
        }
      },
      "action_counts": {
        "abstain": 661,
        "long_time": 1015,
        "short_time": 284
      },
      "stable_action_hash": "4d552ec599234bb75a55495907965217d3b342ffbf252ec73df5e93176bd32b5",
      "selection_schedule_hashes": {
        "train": "76a26e2a61d438b59b3d68ed09edd6dc6267d9a84d2db0b4760f6175feef25db",
        "train_2020h2": "9f5099dffbbee38f0acc66c3aaea19ecf1e88defaa10ef677ad8ea06642748c4",
        "train_2021": "26047d24d623ca02cb9893ade89dfaaf3d583d97123fbe7315e3e788fa84077c",
        "train_2022": "d63c0a27ef1e87a98dcbfea83312737cfe8586c7219ebfbbc05c3b17817288d7",
        "select_2023": "46a5dd70aeec1f418b0c954344957480214d0d8d8a0a586996bd3507c50480b5",
        "select_2023_h1": "1847e5d7dd3474da888b3dae0bcd02b53da4be607db41ec635485ac499a9e18a",
        "select_2023_h2": "8b7532bb590393d954eff845015dfa89cefe88d383f327636466fc4953ffc2fa",
        "pre_2024": "d5055e667bb9a7dc53cf147460b8ed804b2b5b318faa18a17dbb3ebbe76141e6"
      },
      "selection_passed": false,
      "beats_base": true,
      "accepted": false,
      "score": [
        2.803644633898403,
        4.164985108142957,
        149.0
      ],
      "stats": {
        "train": {
          "absolute_return_pct": 212.58641126113002,
          "cagr_pct": 57.68794658366936,
          "strict_mdd_pct": 11.388553350858166,
          "cagr_to_strict_mdd": 5.065432351802819,
          "trades": 119,
          "mean_net_bps": 99.06323952929466,
          "win_rate": 0.6302521008403361
        },
        "train_2020h2": {
          "absolute_return_pct": 12.830474276080682,
          "cagr_pct": 27.077680848812548,
          "strict_mdd_pct": 4.951487702407487,
          "cagr_to_strict_mdd": 5.468594991288573,
          "trades": 16,
          "mean_net_bps": 76.43092418326273,
          "win_rate": 0.8125
        },
        "train_2021": {
          "absolute_return_pct": 72.21801854599043,
          "cagr_pct": 72.2821511496276,
          "strict_mdd_pct": 11.388553350858178,
          "cagr_to_strict_mdd": 6.346912458743569,
          "trades": 49,
          "mean_net_bps": 115.89439331282026,
          "win_rate": 0.6326530612244898
        },
        "train_2022": {
          "absolute_return_pct": 57.99437043942741,
          "cagr_pct": 58.043874714797774,
          "strict_mdd_pct": 7.681713337084995,
          "cagr_to_strict_mdd": 7.5561104883437205,
          "trades": 53,
          "mean_net_bps": 88.77416628011035,
          "win_rate": 0.5660377358490566
        },
        "select_2023": {
          "absolute_return_pct": 24.566555935342073,
          "cagr_pct": 24.58529949055672,
          "strict_mdd_pct": 8.76904982653648,
          "cagr_to_strict_mdd": 2.803644633898403,
          "trades": 30,
          "mean_net_bps": 75.17455428181485,
          "win_rate": 0.6333333333333333
        },
        "select_2023_h1": {
          "absolute_return_pct": 21.435815664742908,
          "cagr_pct": 47.98173087387902,
          "strict_mdd_pct": 8.76904982653648,
          "cagr_to_strict_mdd": 5.471713791462218,
          "trades": 14,
          "mean_net_bps": 142.41292571332505,
          "win_rate": 0.8571428571428571
        },
        "select_2023_h2": {
          "absolute_return_pct": 2.5781028879012347,
          "cagr_pct": 5.182649552987129,
          "strict_mdd_pct": 3.2505827432525614,
          "cagr_to_strict_mdd": 1.5943755204340144,
          "trades": 16,
          "mean_net_bps": 16.340979279243705,
          "win_rate": 0.4375
        },
        "pre_2024": {
          "absolute_return_pct": 289.3781268298739,
          "cagr_pct": 47.43315510961583,
          "strict_mdd_pct": 11.388553350858166,
          "cagr_to_strict_mdd": 4.164985108142957,
          "trades": 149,
          "mean_net_bps": 94.25343713047326,
          "win_rate": 0.6308724832214765
        }
      }
    },
    {
      "spec": {
        "contexts": [
          "dxy_momentum",
          "usdkrw_momentum"
        ],
        "tail": 0.33,
        "action_set": "sides_time",
        "actions": [
          [
            1,
            1000000
          ],
          [
            -1,
            1000000
          ]
        ],
        "risk_lambda": 0.25,
        "ridge": 1.0,
        "weight_mode": "uniform"
      },
      "dimensions": 103,
      "context_thresholds": {
        "dxy_momentum": {
          "mean": -0.00032874200917224725,
          "scale": 0.0027619575402231607,
          "low_threshold": -0.0003246129414248014,
          "high_threshold": 7.07914944773881e-05
        },
        "usdkrw_momentum": {
          "mean": -0.0003996034733060004,
          "scale": 0.00267756427133271,
          "low_threshold": -0.0003947953956697416,
          "high_threshold": 0.0
        }
      },
      "action_counts": {
        "abstain": 673,
        "long_time": 1010,
        "short_time": 277
      },
      "stable_action_hash": "bbec5ff7b0c3942c0a1b20fe1d95c1acc0e6f28d7ff480a5015f063272d67f44",
      "selection_schedule_hashes": {
        "train": "41288a7966ce97bc2e7b949da1a142486139f1a33579b203a8422c7d25661e45",
        "train_2020h2": "9f5099dffbbee38f0acc66c3aaea19ecf1e88defaa10ef677ad8ea06642748c4",
        "train_2021": "714368d1cb112a428c901933c748cddf97cde7075fb006e67987b1d4a26b8376",
        "train_2022": "bd29cfeeafaf8443c385477dd0e4bcdca327344dd2e874be4583d04b2db9c489",
        "select_2023": "46a5dd70aeec1f418b0c954344957480214d0d8d8a0a586996bd3507c50480b5",
        "select_2023_h1": "1847e5d7dd3474da888b3dae0bcd02b53da4be607db41ec635485ac499a9e18a",
        "select_2023_h2": "8b7532bb590393d954eff845015dfa89cefe88d383f327636466fc4953ffc2fa",
        "pre_2024": "1f08a627d6221a443c1883b9bc071a30a90917134c3c29c9c89f31391f95ae8f"
      },
      "selection_passed": false,
      "beats_base": true,
      "accepted": false,
      "score": [
        2.803644633898403,
        4.04891946764246,
        149.0
      ],
      "stats": {
        "train": {
          "absolute_return_pct": 202.88239293142829,
          "cagr_pct": 55.71315912697574,
          "strict_mdd_pct": 11.388553350858166,
          "cagr_to_strict_mdd": 4.892031271274465,
          "trades": 119,
          "mean_net_bps": 96.40293267556092,
          "win_rate": 0.6218487394957983
        },
        "train_2020h2": {
          "absolute_return_pct": 12.830474276080682,
          "cagr_pct": 27.077680848812548,
          "strict_mdd_pct": 4.951487702407487,
          "cagr_to_strict_mdd": 5.468594991288573,
          "trades": 16,
          "mean_net_bps": 76.43092418326273,
          "win_rate": 0.8125
        },
        "train_2021": {
          "absolute_return_pct": 69.04394215784863,
          "cagr_pct": 69.10473810620117,
          "strict_mdd_pct": 11.388553350858178,
          "cagr_to_strict_mdd": 6.067911874074315,
          "trades": 49,
          "mean_net_bps": 112.06513216659442,
          "win_rate": 0.6122448979591837
        },
        "train_2022": {
          "absolute_return_pct": 55.96405643570668,
          "cagr_pct": 56.01154247493805,
          "strict_mdd_pct": 7.681713337084983,
          "cagr_to_strict_mdd": 7.2915429171941755,
          "trades": 53,
          "mean_net_bps": 86.3412847814451,
          "win_rate": 0.5660377358490566
        },
        "select_2023": {
          "absolute_return_pct": 24.566555935342073,
          "cagr_pct": 24.58529949055672,
          "strict_mdd_pct": 8.76904982653648,
          "cagr_to_strict_mdd": 2.803644633898403,
          "trades": 30,
          "mean_net_bps": 75.17455428181485,
          "win_rate": 0.6333333333333333
        },
        "select_2023_h1": {
          "absolute_return_pct": 21.435815664742908,
          "cagr_pct": 47.98173087387902,
          "strict_mdd_pct": 8.76904982653648,
          "cagr_to_strict_mdd": 5.471713791462218,
          "trades": 14,
          "mean_net_bps": 142.41292571332505,
          "win_rate": 0.8571428571428571
        },
        "select_2023_h2": {
          "absolute_return_pct": 2.5781028879012347,
          "cagr_pct": 5.182649552987129,
          "strict_mdd_pct": 3.2505827432525614,
          "cagr_to_strict_mdd": 1.5943755204340144,
          "trades": 16,
          "mean_net_bps": 16.340979279243705,
          "win_rate": 0.4375
        },
        "pre_2024": {
          "absolute_return_pct": 277.29016540923016,
          "cagr_pct": 46.111335370574395,
          "strict_mdd_pct": 11.388553350858166,
          "cagr_to_strict_mdd": 4.04891946764246,
          "trades": 149,
          "mean_net_bps": 92.1287625291691,
          "win_rate": 0.6241610738255033
        }
      }
    },
    {
      "spec": {
        "contexts": [
          "usdkrw_momentum",
          "dollar_flow_rel_4h_30d"
        ],
        "tail": 0.2,
        "action_set": "tp4_time",
        "actions": [
          [
            1,
            400
          ],
          [
            1,
            1000000
          ],
          [
            -1,
            400
          ],
          [
            -1,
            1000000
          ]
        ],
        "risk_lambda": 0.25,
        "ridge": 100.0,
        "weight_mode": "year"
      },
      "dimensions": 103,
      "context_thresholds": {
        "usdkrw_momentum": {
          "mean": -0.0003996034733060004,
          "scale": 0.00267756427133271,
          "low_threshold": -0.0016093911398117596,
          "high_threshold": 0.0004658222593362802
        },
        "dollar_flow_rel_4h_30d": {
          "mean": 0.11028575038552495,
          "scale": 0.5162782890237811,
          "low_threshold": -0.33187024282027444,
          "high_threshold": 0.5486730452990237
        }
      },
      "action_counts": {
        "abstain": 698,
        "long_tp4": 146,
        "long_time": 892,
        "short_tp4": 157,
        "short_time": 67
      },
      "stable_action_hash": "3afc34941bdc07d77df5727cc0f023405f60852eeb860a4f53ba20f15a15b0b7",
      "selection_schedule_hashes": {
        "train": "af348a6c506ac0c0cf6b6d639f42cd01970780254c64f101143a667f59a7a020",
        "train_2020h2": "7a0195db3053bcb52536c85280a49c070b8fa66fdabe28a57cacb33b641d4343",
        "train_2021": "5ac89911e8409c5c2b56558713ab0de9fccb4a9717409e2b154a00e8c3d33a5c",
        "train_2022": "6a269bad9e98dd2b3b52a9d812f4929582e9c9831ea4d356e53a7b34d8c4d396",
        "select_2023": "37ce8f5ddc8b876998eeb01428c6bc6951b914113774a9f03bcb9ae83fe758c6",
        "select_2023_h1": "c753a5603f88d15eaa73b1954f71c0f6508bb754044852916f080e35ee312a88",
        "select_2023_h2": "38c265fb5a6277eefb9d24a5182030a813b219306510f284d4890c0d3525e896",
        "pre_2024": "78c41471542af261fde4a875d6c5a7fac25af5a0e8dd356c4a7e961dc29ad88f"
      },
      "selection_passed": false,
      "beats_base": true,
      "accepted": false,
      "score": [
        2.75104502612839,
        3.393662831792639,
        159.0
      ],
      "stats": {
        "train": {
          "absolute_return_pct": 203.04769662263737,
          "cagr_pct": 55.747114361194996,
          "strict_mdd_pct": 16.426827626758556,
          "cagr_to_strict_mdd": 3.393662831792639,
          "trades": 128,
          "mean_net_bps": 89.7419061327059,
          "win_rate": 0.6171875
        },
        "train_2020h2": {
          "absolute_return_pct": 14.41660185271667,
          "cagr_pct": 30.648351253677752,
          "strict_mdd_pct": 5.401356661085577,
          "cagr_to_strict_mdd": 5.674195054454704,
          "trades": 18,
          "mean_net_bps": 76.05627394208669,
          "win_rate": 0.7222222222222222
        },
        "train_2021": {
          "absolute_return_pct": 91.26584677195406,
          "cagr_pct": 91.35082097184099,
          "strict_mdd_pct": 16.426827626758556,
          "cagr_to_strict_mdd": 5.561075032103865,
          "trades": 53,
          "mean_net_bps": 126.90846026319225,
          "win_rate": 0.6981132075471698
        },
        "train_2022": {
          "absolute_return_pct": 38.3411420994618,
          "cagr_pct": 38.37189823188842,
          "strict_mdd_pct": 8.50083333793088,
          "cagr_to_strict_mdd": 4.513898426954483,
          "trades": 57,
          "mean_net_bps": 59.327238470166726,
          "win_rate": 0.5087719298245614
        },
        "select_2023": {
          "absolute_return_pct": 21.773966235026542,
          "cagr_pct": 21.790398188447767,
          "strict_mdd_pct": 5.461656529473268,
          "cagr_to_strict_mdd": 3.989704967871583,
          "trades": 31,
          "mean_net_bps": 64.32246725043193,
          "win_rate": 0.7419354838709677
        },
        "select_2023_h1": {
          "absolute_return_pct": 19.376774300789414,
          "cagr_pct": 42.962072842109535,
          "strict_mdd_pct": 5.461656529473268,
          "cagr_to_strict_mdd": 7.866124976967908,
          "trades": 16,
          "mean_net_bps": 111.85224474226159,
          "win_rate": 0.9375
        },
        "select_2023_h2": {
          "absolute_return_pct": 2.0080890510552507,
          "cagr_pct": 4.025586689942151,
          "strict_mdd_pct": 2.9619516758722764,
          "cagr_to_strict_mdd": 1.3590993812404588,
          "trades": 15,
          "mean_net_bps": 13.624037925813681,
          "win_rate": 0.5333333333333333
        },
        "pre_2024": {
          "absolute_return_pct": 269.033199761276,
          "cagr_pct": 45.19094243766255,
          "strict_mdd_pct": 16.426827626758556,
          "cagr_to_strict_mdd": 2.75104502612839,
          "trades": 159,
          "mean_net_bps": 84.78591490408645,
          "win_rate": 0.6415094339622641
        }
      }
    },
    {
      "spec": {
        "contexts": [
          "kimchi_premium_change",
          "dollar_flow_rel_4h_30d"
        ],
        "tail": 0.2,
        "action_set": "tp4_time",
        "actions": [
          [
            1,
            400
          ],
          [
            1,
            1000000
          ],
          [
            -1,
            400
          ],
          [
            -1,
            1000000
          ]
        ],
        "risk_lambda": 0.25,
        "ridge": 100.0,
        "weight_mode": "year"
      },
      "dimensions": 103,
      "context_thresholds": {
        "kimchi_premium_change": {
          "mean": -0.00010959923262923176,
          "scale": 0.006074774108236574,
          "low_threshold": -0.00346509244294096,
          "high_threshold": 0.0014125494668928802
        },
        "dollar_flow_rel_4h_30d": {
          "mean": 0.11028575038552495,
          "scale": 0.5162782890237811,
          "low_threshold": -0.33187024282027444,
          "high_threshold": 0.5486730452990237
        }
      },
      "action_counts": {
        "abstain": 713,
        "long_tp4": 163,
        "long_time": 864,
        "short_tp4": 165,
        "short_time": 55
      },
      "stable_action_hash": "a507c229313ce1f0320c95408ffe4743dad74a11a45bb1b10e8db119b4cb1903",
      "selection_schedule_hashes": {
        "train": "3b10b376c2d5f042bbfe480061d3965c152a464808b7c0a19f416500edef8f36",
        "train_2020h2": "292b04ab6a33f018de20be1685f19868f84ef4b573c84b0e14e4ae48f03380ea",
        "train_2021": "9c490f99f5996a3d3588d1457dc4ebeb93ce7fae08e4be2575c5b91e1bbcdde5",
        "train_2022": "e0018b1a26ffdd62a86a080238991f7bcf2262a7e9a431c55cf9268209e6bc85",
        "select_2023": "b4efefb583df4b7b7f4ff0acfd9fbdca5cbccf92f2854b71e7d2240fb4a76217",
        "select_2023_h1": "df2aea484bc1989f38ff7eac8afde38c5166692183f98c93888dedfc8f905218",
        "select_2023_h2": "2f6aad87f544ad49e50b62200dcf129bf68edf07bd92c77d1c0d6489d0b89cb4",
        "pre_2024": "14381cf4bcfca705602326e7cd4722fcce4a04bf855d5cf700ca800974d3cf46"
      },
      "selection_passed": false,
      "beats_base": true,
      "accepted": false,
      "score": [
        2.6843432576071895,
        2.9421499907922257,
        158.0
      ],
      "stats": {
        "train": {
          "absolute_return_pct": 218.55234610767158,
          "cagr_pct": 58.88380762367375,
          "strict_mdd_pct": 16.426827626758545,
          "cagr_to_strict_mdd": 3.584612255123122,
          "trades": 128,
          "mean_net_bps": 93.57161109146169,
          "win_rate": 0.6328125
        },
        "train_2020h2": {
          "absolute_return_pct": 18.099462957632984,
          "cagr_pct": 39.128484066064175,
          "strict_mdd_pct": 5.780675544372482,
          "cagr_to_strict_mdd": 6.76884280491334,
          "trades": 19,
          "mean_net_bps": 88.8854973512939,
          "win_rate": 0.6842105263157895
        },
        "train_2021": {
          "absolute_return_pct": 86.00963990544051,
          "cagr_pct": 86.0887271584037,
          "strict_mdd_pct": 16.426827626758556,
          "cagr_to_strict_mdd": 5.240739667723126,
          "trades": 51,
          "mean_net_bps": 126.79479822610267,
          "win_rate": 0.6470588235294118
        },
        "train_2022": {
          "absolute_return_pct": 53.59580172610106,
          "cagr_pct": 53.64095651224212,
          "strict_mdd_pct": 7.682712983578921,
          "cagr_to_strict_mdd": 6.982033121228743,
          "trades": 57,
          "mean_net_bps": 77.64690307972255,
          "win_rate": 0.5964912280701754
        },
        "select_2023": {
          "absolute_return_pct": 24.857787794599815,
          "cagr_pct": 24.87677490861757,
          "strict_mdd_pct": 9.26735984234468,
          "cagr_to_strict_mdd": 2.6843432576071895,
          "trades": 30,
          "mean_net_bps": 75.34083105773529,
          "win_rate": 0.6666666666666666
        },
        "select_2023_h1": {
          "absolute_return_pct": 23.062046498789822,
          "cagr_pct": 52.00802525546653,
          "strict_mdd_pct": 9.26735984234468,
          "cagr_to_strict_mdd": 5.611957034173854,
          "trades": 15,
          "mean_net_bps": 140.76798523193975,
          "win_rate": 0.8
        },
        "select_2023_h2": {
          "absolute_return_pct": 1.459216181511791,
          "cagr_pct": 2.9174400551692736,
          "strict_mdd_pct": 2.9619516758722653,
          "cagr_to_strict_mdd": 0.9849721988830613,
          "trades": 15,
          "mean_net_bps": 9.913676883530545,
          "win_rate": 0.5333333333333333
        },
        "pre_2024": {
          "absolute_return_pct": 297.73741231783583,
          "cagr_pct": 48.33019075081313,
          "strict_mdd_pct": 16.426827626758545,
          "cagr_to_strict_mdd": 2.9421499907922257,
          "trades": 158,
          "mean_net_bps": 90.11007057872884,
          "win_rate": 0.6392405063291139
        }
      }
    },
    {
      "spec": {
        "contexts": [
          "kimchi_premium_change",
          "dollar_flow_rel_4h_30d"
        ],
        "tail": 0.2,
        "action_set": "sides_time",
        "actions": [
          [
            1,
            1000000
          ],
          [
            -1,
            1000000
          ]
        ],
        "risk_lambda": 0.25,
        "ridge": 100.0,
        "weight_mode": "year"
      },
      "dimensions": 103,
      "context_thresholds": {
        "kimchi_premium_change": {
          "mean": -0.00010959923262923176,
          "scale": 0.006074774108236574,
          "low_threshold": -0.00346509244294096,
          "high_threshold": 0.0014125494668928802
        },
        "dollar_flow_rel_4h_30d": {
          "mean": 0.11028575038552495,
          "scale": 0.5162782890237811,
          "low_threshold": -0.33187024282027444,
          "high_threshold": 0.5486730452990237
        }
      },
      "action_counts": {
        "abstain": 865,
        "long_time": 953,
        "short_time": 142
      },
      "stable_action_hash": "89c76bc1ebd3ec95ed4e8cab9f848b4d3cc94eb46d29c6bc87bf51c09b8d0339",
      "selection_schedule_hashes": {
        "train": "11e7041c963de2247d89d95d250dfcd1138ede7657eed399f2dbd9960452a267",
        "train_2020h2": "160e11f185154886c97a61ad2f7a0ba3ede1047c95307a04448a9ca041203c92",
        "train_2021": "3202d28860776023046e569f7668f4b80eb72db4e0d808abcf18551f73754534",
        "train_2022": "a788308a75663915638cffb523280662a8b3cd5b5ff73873fc2ac7263f005305",
        "select_2023": "436c65b46ab078221796da9150840c1393b3d71d884da88e37dd418d3aeefc6c",
        "select_2023_h1": "99334d65295f5bc96d68302d32db83a356277be5fc3e3bb1dae69f1af331a4e5",
        "select_2023_h2": "b61b00228bc6eeb715eb7b8268d89c184bcb664270169b35020ec51cfac6b62d",
        "pre_2024": "3295d23aa958bf9bf646c3b4c9e6af9a8ab08dc1f38fdf1b5332513226099499"
      },
      "selection_passed": false,
      "beats_base": true,
      "accepted": false,
      "score": [
        2.6782897109628205,
        2.904855660515372,
        144.0
      ],
      "stats": {
        "train": {
          "absolute_return_pct": 201.46825589815415,
          "cagr_pct": 55.42222370512897,
          "strict_mdd_pct": 16.426827626758556,
          "cagr_to_strict_mdd": 3.373884779484061,
          "trades": 115,
          "mean_net_bps": 99.3800775581881,
          "win_rate": 0.6173913043478261
        },
        "train_2020h2": {
          "absolute_return_pct": 16.501020808709164,
          "cagr_pct": 35.41541980717662,
          "strict_mdd_pct": 5.780675544372505,
          "cagr_to_strict_mdd": 6.126519216539246,
          "trades": 17,
          "mean_net_bps": 91.24172913939815,
          "win_rate": 0.7058823529411765
        },
        "train_2021": {
          "absolute_return_pct": 98.05409238377449,
          "cagr_pct": 98.14681560639325,
          "strict_mdd_pct": 16.426827626758545,
          "cagr_to_strict_mdd": 5.974788184087146,
          "trades": 48,
          "mean_net_bps": 147.64947509080187,
          "win_rate": 0.6875
        },
        "train_2022": {
          "absolute_return_pct": 28.32301561482453,
          "cagr_pct": 28.34493615296232,
          "strict_mdd_pct": 8.886910109627188,
          "cagr_to_strict_mdd": 3.189515343725178,
          "trades": 49,
          "mean_net_bps": 53.2377568894601,
          "win_rate": 0.5102040816326531
        },
        "select_2023": {
          "absolute_return_pct": 30.03516359376579,
          "cagr_pct": 30.058557306305957,
          "strict_mdd_pct": 11.223041772990339,
          "cagr_to_strict_mdd": 2.6782897109628205,
          "trades": 29,
          "mean_net_bps": 92.7959024916186,
          "win_rate": 0.6896551724137931
        },
        "select_2023_h1": {
          "absolute_return_pct": 27.052078646738174,
          "cagr_pct": 62.11777163465162,
          "strict_mdd_pct": 11.223041772990339,
          "cagr_to_strict_mdd": 5.534842771782766,
          "trades": 14,
          "mean_net_bps": 175.38683061972284,
          "win_rate": 0.8571428571428571
        },
        "select_2023_h2": {
          "absolute_return_pct": 2.3479229767833676,
          "cagr_pct": 4.714646153263979,
          "strict_mdd_pct": 2.9619516758722653,
          "cagr_to_strict_mdd": 1.5917363512946452,
          "trades": 15,
          "mean_net_bps": 15.711036238721462,
          "win_rate": 0.5333333333333333
        },
        "pre_2024": {
          "absolute_return_pct": 292.0147397404372,
          "cagr_pct": 47.71756321589989,
          "strict_mdd_pct": 16.426827626758556,
          "cagr_to_strict_mdd": 2.904855660515372,
          "trades": 144,
          "mean_net_bps": 98.05409785728173,
          "win_rate": 0.6319444444444444
        }
      }
    },
    {
      "spec": {
        "contexts": [
          "dxy_momentum",
          "kimchi_premium_change"
        ],
        "tail": 0.2,
        "action_set": "tp4_time",
        "actions": [
          [
            1,
            400
          ],
          [
            1,
            1000000
          ],
          [
            -1,
            400
          ],
          [
            -1,
            1000000
          ]
        ],
        "risk_lambda": 0.25,
        "ridge": 100.0,
        "weight_mode": "uniform"
      },
      "dimensions": 103,
      "context_thresholds": {
        "dxy_momentum": {
          "mean": -0.00032874200917224725,
          "scale": 0.0027619575402231607,
          "low_threshold": -0.00150965405874902,
          "high_threshold": 0.0008072164735783604
        },
        "kimchi_premium_change": {
          "mean": -0.00010959923262923176,
          "scale": 0.006074774108236574,
          "low_threshold": -0.00346509244294096,
          "high_threshold": 0.0014125494668928802
        }
      },
      "action_counts": {
        "abstain": 672,
        "long_tp4": 122,
        "long_time": 920,
        "short_tp4": 158,
        "short_time": 88
      },
      "stable_action_hash": "71f6205975257656edfa64a52e688dab457307c757f910bdf14ab9c5768d072e",
      "selection_schedule_hashes": {
        "train": "58c3a2ce9313791ec6a6d6e81791b1a06598568dfa243f0e59a053638a55bb0d",
        "train_2020h2": "ca2d4c29c9f5e706d50413faf7c3100f94de7ed5edce6ffc128cd2e51c974ad3",
        "train_2021": "189b6054f0ee3afc67ce25a1eea85e93dd4406b4cee032ecb2614e400d785302",
        "train_2022": "c73f0dd93482001cfd5f99cfa9764a89fa2afc3a2205cf2f7f029a6b64268d8b",
        "select_2023": "bedd0f38fc9affb0c932cb0f2d1bb63de84ca80294368f6e7bf0cb7c34a65c3b",
        "select_2023_h1": "46ab6d43f4024de075ba14745a5535b45625c563e11038e5829d9d8563ff76b0",
        "select_2023_h2": "8aaefc50f5f8213b398bf5e32d3cb6c3734e3374bdf39f9b1f2aab1ef27290ac",
        "pre_2024": "b218ebd8cea26a6ab0164fe6884a5b1e587a5ea8afe7dc9bb18bb038dbbada2b"
      },
      "selection_passed": false,
      "beats_base": true,
      "accepted": false,
      "score": [
        2.671648109600406,
        2.914444742853763,
        159.0
      ],
      "stats": {
        "train": {
          "absolute_return_pct": 188.22630194068628,
          "cagr_pct": 52.65723678709029,
          "strict_mdd_pct": 16.562675877740496,
          "cagr_to_strict_mdd": 3.179271101830791,
          "trades": 128,
          "mean_net_bps": 85.98116988375024,
          "win_rate": 0.6171875
        },
        "train_2020h2": {
          "absolute_return_pct": 14.268029869297205,
          "cagr_pct": 30.311803756588773,
          "strict_mdd_pct": 5.401356661085588,
          "cagr_to_strict_mdd": 5.611887097730846,
          "trades": 15,
          "mean_net_bps": 90.07679767325135,
          "win_rate": 0.8666666666666667
        },
        "train_2021": {
          "absolute_return_pct": 100.68614678756727,
          "cagr_pct": 100.78191782340382,
          "strict_mdd_pct": 16.562675877740496,
          "cagr_to_strict_mdd": 6.084881366232026,
          "trades": 55,
          "mean_net_bps": 131.5416041639704,
          "win_rate": 0.6727272727272727
        },
        "train_2022": {
          "absolute_return_pct": 23.44343426236477,
          "cagr_pct": 23.461242925350902,
          "strict_mdd_pct": 8.792037272873877,
          "cagr_to_strict_mdd": 2.668464907187781,
          "trades": 57,
          "mean_net_bps": 39.260963493387244,
          "win_rate": 0.49122807017543857
        },
        "select_2023": {
          "absolute_return_pct": 25.15271098058003,
          "cagr_pct": 25.171945215028234,
          "strict_mdd_pct": 8.636960874537081,
          "cagr_to_strict_mdd": 2.914444742853763,
          "trades": 31,
          "mean_net_bps": 74.15693728904307,
          "win_rate": 0.6129032258064516
        },
        "select_2023_h1": {
          "absolute_return_pct": 24.748444132964707,
          "cagr_pct": 56.24087533870854,
          "strict_mdd_pct": 8.636960874537081,
          "cagr_to_strict_mdd": 6.511651048983467,
          "trades": 15,
          "mean_net_bps": 150.83915142605994,
          "win_rate": 0.8
        },
        "select_2023_h2": {
          "absolute_return_pct": 0.32406564300264673,
          "cagr_pct": 0.644314656202738,
          "strict_mdd_pct": 2.9619516758722653,
          "cagr_to_strict_mdd": 0.21753044165144717,
          "trades": 16,
          "mean_net_bps": 2.2673615355894157,
          "win_rate": 0.4375
        },
        "pre_2024": {
          "absolute_return_pct": 260.7230306378411,
          "cagr_pct": 44.249641698689636,
          "strict_mdd_pct": 16.562675877740496,
          "cagr_to_strict_mdd": 2.671648109600406,
          "trades": 159,
          "mean_net_bps": 83.67581635899597,
          "win_rate": 0.6163522012578616
        }
      }
    },
    {
      "spec": {
        "contexts": [
          "dxy_momentum",
          "kimchi_premium_change"
        ],
        "tail": 0.2,
        "action_set": "sides_time",
        "actions": [
          [
            1,
            1000000
          ],
          [
            -1,
            1000000
          ]
        ],
        "risk_lambda": 0.25,
        "ridge": 10.0,
        "weight_mode": "uniform"
      },
      "dimensions": 103,
      "context_thresholds": {
        "dxy_momentum": {
          "mean": -0.00032874200917224725,
          "scale": 0.0027619575402231607,
          "low_threshold": -0.00150965405874902,
          "high_threshold": 0.0008072164735783604
        },
        "kimchi_premium_change": {
          "mean": -0.00010959923262923176,
          "scale": 0.006074774108236574,
          "low_threshold": -0.00346509244294096,
          "high_threshold": 0.0014125494668928802
        }
      },
      "action_counts": {
        "abstain": 711,
        "long_time": 986,
        "short_time": 263
      },
      "stable_action_hash": "9bffdd6f0040c35ed4940debfff82d357c2f1a5334c503ed7f7688f931d3d40c",
      "selection_schedule_hashes": {
        "train": "41949d0e0feaf4f0984ca8963cca86fbcf0b7393accbc38335e0672e70118dc3",
        "train_2020h2": "e76ae4afef8db43595abffb71567b9d5fdac213f24ea30fd444abb0eadf7ead1",
        "train_2021": "36dffd93fc0e4eab8bb6f31fd001ffc59f03add39fbc3fb19f5037d2606fc747",
        "train_2022": "18dbada561d9fdc8bdde4d0e1049c2946ec85e8bd17f5877d97b900fe5f5551f",
        "select_2023": "42b9437c9e262f085c881deea97d0e6b13a06023252b38274ad3c0235bd522ad",
        "select_2023_h1": "d8dba3410453e18cac4dd10235ef69dc2ae8676e89ad0ad83c4252a04514945e",
        "select_2023_h2": "49a9f968a761e9731a0127e294a3156e39b01923c47052ab7fffd2716bbb16a9",
        "pre_2024": "79e8be67850f715ad014d82cbc210e456f6562b5beccf111f419765ff5e9185f"
      },
      "selection_passed": false,
      "beats_base": true,
      "accepted": false,
      "score": [
        2.6714645027673853,
        3.349067700505541,
        152.0
      ],
      "stats": {
        "train": {
          "absolute_return_pct": 157.4150059092248,
          "cagr_pct": 45.91377694587542,
          "strict_mdd_pct": 11.643383244767714,
          "cagr_to_strict_mdd": 3.9433363980789764,
          "trades": 121,
          "mean_net_bps": 81.31964193051377,
          "win_rate": 0.5785123966942148
        },
        "train_2020h2": {
          "absolute_return_pct": 13.071410330921829,
          "cagr_pct": 27.616910270269667,
          "strict_mdd_pct": 5.448591733497066,
          "cagr_to_strict_mdd": 5.068632707509601,
          "trades": 16,
          "mean_net_bps": 78.14414629721927,
          "win_rate": 0.8125
        },
        "train_2021": {
          "absolute_return_pct": 98.78775315572912,
          "cagr_pct": 98.88132353048763,
          "strict_mdd_pct": 11.643383244767701,
          "cagr_to_strict_mdd": 8.492490666312378,
          "trades": 50,
          "mean_net_bps": 142.02302583680768,
          "win_rate": 0.64
        },
        "train_2022": {
          "absolute_return_pct": 12.478093446080308,
          "cagr_pct": 12.487152788203005,
          "strict_mdd_pct": 10.981797987290998,
          "cagr_to_strict_mdd": 1.1370772620889698,
          "trades": 54,
          "mean_net_bps": 24.193414983638245,
          "win_rate": 0.4444444444444444
        },
        "select_2023": {
          "absolute_return_pct": 23.055846732410814,
          "cagr_pct": 23.073334388116564,
          "strict_mdd_pct": 8.636960874537081,
          "cagr_to_strict_mdd": 2.6714645027673853,
          "trades": 31,
          "mean_net_bps": 68.60888093464423,
          "win_rate": 0.5806451612903226
        },
        "select_2023_h1": {
          "absolute_return_pct": 22.001415560037273,
          "cagr_pct": 49.37588450704211,
          "strict_mdd_pct": 8.636960874537081,
          "cagr_to_strict_mdd": 5.716812339929527,
          "trades": 15,
          "mean_net_bps": 135.80941387397152,
          "win_rate": 0.7333333333333333
        },
        "select_2023_h2": {
          "absolute_return_pct": 0.8642778180345312,
          "cagr_pct": 1.72294126170498,
          "strict_mdd_pct": 2.9619516758722875,
          "cagr_to_strict_mdd": 0.5816912125001426,
          "trades": 16,
          "mean_net_bps": 5.608381304024745,
          "win_rate": 0.4375
        },
        "pre_2024": {
          "absolute_return_pct": 216.76421513788182,
          "cagr_pct": 38.99447874965895,
          "strict_mdd_pct": 11.643383244767714,
          "cagr_to_strict_mdd": 3.349067700505541,
          "trades": 152,
          "mean_net_bps": 78.7273156747772,
          "win_rate": 0.5789473684210527
        }
      }
    },
    {
      "spec": {
        "contexts": [
          "kimchi_premium_change",
          "dollar_flow_rel_4h_30d"
        ],
        "tail": 0.2,
        "action_set": "sides_time",
        "actions": [
          [
            1,
            1000000
          ],
          [
            -1,
            1000000
          ]
        ],
        "risk_lambda": 0.25,
        "ridge": 100.0,
        "weight_mode": "uniform"
      },
      "dimensions": 103,
      "context_thresholds": {
        "kimchi_premium_change": {
          "mean": -0.00010959923262923176,
          "scale": 0.006074774108236574,
          "low_threshold": -0.00346509244294096,
          "high_threshold": 0.0014125494668928802
        },
        "dollar_flow_rel_4h_30d": {
          "mean": 0.11028575038552495,
          "scale": 0.5162782890237811,
          "low_threshold": -0.33187024282027444,
          "high_threshold": 0.5486730452990237
        }
      },
      "action_counts": {
        "abstain": 859,
        "long_time": 966,
        "short_time": 135
      },
      "stable_action_hash": "0b8c4792a71606833e3fdb530a1a2197b9efecfbf7173b22477830b3d17a898e",
      "selection_schedule_hashes": {
        "train": "208a0e2819cac03b878368628ca07eeb9b61b9d800fa5799ca9b9b238a80c566",
        "train_2020h2": "34aa0f13e60c986a5d0c57de7d7e84914a21f70c3c94794163a139d43a6fff78",
        "train_2021": "d4612abe4074563be888ee6120b7c5d8b1d0e0e3c5075994d7acbc2e5a4676cf",
        "train_2022": "1cd9cbc728260a2a5ac7b5d26bffe3049882fcf59e357bc9acb353a0106a148d",
        "select_2023": "83a50b4938c0f33f7942e28c176ce35e314e12ae01ed4fc7417012f91978e10b",
        "select_2023_h1": "f3cdc944665ad9b96a8d5ae7bb8e3d80b53dc2d0a78d9f0e685593941a93bb1c",
        "select_2023_h2": "b2c443b2d03f7b1d2fe79125afcece11aa6d438144bd6c554060894934c4e456",
        "pre_2024": "2e9e12b10a4ec4a069ba6be0f18b7189dcad21d28eedd01cea90fe8cc8dc5930"
      },
      "selection_passed": false,
      "beats_base": true,
      "accepted": false,
      "score": [
        2.6381410930927878,
        3.0642624567623056,
        143.0
      ],
      "stats": {
        "train": {
          "absolute_return_pct": 179.3106777853854,
          "cagr_pct": 50.75238587568287,
          "strict_mdd_pct": 16.562675877740496,
          "cagr_to_strict_mdd": 3.0642624567623056,
          "trades": 114,
          "mean_net_bps": 93.4136856140658,
          "win_rate": 0.5964912280701754
        },
        "train_2020h2": {
          "absolute_return_pct": 14.151242511579776,
          "cagr_pct": 30.047557662252423,
          "strict_mdd_pct": 5.401356661085577,
          "cagr_to_strict_mdd": 5.562964926706654,
          "trades": 17,
          "mean_net_bps": 78.95962919779075,
          "win_rate": 0.7647058823529411
        },
        "train_2021": {
          "absolute_return_pct": 92.87884243788366,
          "cagr_pct": 92.96564318085497,
          "strict_mdd_pct": 16.562675877740496,
          "cagr_to_strict_mdd": 5.61296036142304,
          "trades": 46,
          "mean_net_bps": 147.93915556051405,
          "win_rate": 0.6521739130434783
        },
        "train_2022": {
          "absolute_return_pct": 24.59448655814349,
          "cagr_pct": 24.613253451673224,
          "strict_mdd_pct": 8.192725154376667,
          "cagr_to_strict_mdd": 3.0042816020166967,
          "trades": 50,
          "mean_net_bps": 46.3974135195518,
          "win_rate": 0.48
        },
        "select_2023": {
          "absolute_return_pct": 27.41607906149024,
          "cagr_pct": 27.437225580591672,
          "strict_mdd_pct": 8.636960874537092,
          "cagr_to_strict_mdd": 3.1767222266202757,
          "trades": 29,
          "mean_net_bps": 85.37164479529423,
          "win_rate": 0.7241379310344828
        },
        "select_2023_h1": {
          "absolute_return_pct": 24.60583213143801,
          "cagr_pct": 55.8806498167482,
          "strict_mdd_pct": 8.636960874537092,
          "cagr_to_strict_mdd": 6.4699436096198815,
          "trades": 14,
          "mean_net_bps": 160.6557545969164,
          "win_rate": 0.9285714285714286
        },
        "select_2023_h2": {
          "absolute_return_pct": 2.255309307744069,
          "cagr_pct": 4.526635574845361,
          "strict_mdd_pct": 2.9619516758722653,
          "cagr_to_strict_mdd": 1.528261116384457,
          "trades": 15,
          "mean_net_bps": 15.106475647113685,
          "win_rate": 0.5333333333333333
        },
        "pre_2024": {
          "absolute_return_pct": 255.88671403421097,
          "cagr_pct": 43.69467584464386,
          "strict_mdd_pct": 16.562675877740496,
          "cagr_to_strict_mdd": 2.6381410930927878,
          "trades": 143,
          "mean_net_bps": 91.782782231238,
          "win_rate": 0.6223776223776224
        }
      }
    },
    {
      "spec": {
        "contexts": [
          "dxy_momentum",
          "usdkrw_momentum"
        ],
        "tail": 0.33,
        "action_set": "tp4_time",
        "actions": [
          [
            1,
            400
          ],
          [
            1,
            1000000
          ],
          [
            -1,
            400
          ],
          [
            -1,
            1000000
          ]
        ],
        "risk_lambda": 0.5,
        "ridge": 0.1,
        "weight_mode": "uniform"
      },
      "dimensions": 103,
      "context_thresholds": {
        "dxy_momentum": {
          "mean": -0.00032874200917224725,
          "scale": 0.0027619575402231607,
          "low_threshold": -0.0003246129414248014,
          "high_threshold": 7.07914944773881e-05
        },
        "usdkrw_momentum": {
          "mean": -0.0003996034733060004,
          "scale": 0.00267756427133271,
          "low_threshold": -0.0003947953956697416,
          "high_threshold": 0.0
        }
      },
      "action_counts": {
        "abstain": 938,
        "long_tp4": 100,
        "long_time": 641,
        "short_tp4": 167,
        "short_time": 114
      },
      "stable_action_hash": "fc3bfc4778e9f0c8047023375f755fc926e5b36368e3ee32146a44e820db31db",
      "selection_schedule_hashes": {
        "train": "fc5b5d098845bf1b48d325e49694ce2d4acb1441ceda8eba7fadf6b7ada6bb45",
        "train_2020h2": "7fdc16ee1996fcf31cbc999da2b928546f4f98252694006aafe2fdd1115aa042",
        "train_2021": "6c6dbd50281938cfb8c5d43f1be51ab5616a8b3310f956b6b0b4b77da2df11ec",
        "train_2022": "0b07dc097ead5b9d0068a303ed4095afe9f6cb53eb7cf117aec767ce5085e424",
        "select_2023": "d5622bc5ca292f3c0ea3b38c6c07608db10468e187404bddd39791041fc478d8",
        "select_2023_h1": "955eb4522f945457e69505d4e207ecc1fde63f9ec66926900340790199168233",
        "select_2023_h2": "dbd9f2e11235fe4beab07b94b30dfb8b19cbc6fcd35816a9b1905d71165872b8",
        "pre_2024": "ec7760d796e255d5b155bcce705827eaaaa657351827adc803c5271c0e664cc3"
      },
      "selection_passed": false,
      "beats_base": true,
      "accepted": false,
      "score": [
        2.634221757801897,
        4.6492282032302565,
        163.0
      ],
      "stats": {
        "train": {
          "absolute_return_pct": 257.7210076610966,
          "cagr_pct": 66.42011132974181,
          "strict_mdd_pct": 11.334959447338877,
          "cagr_to_strict_mdd": 5.859757296735221,
          "trades": 133,
          "mean_net_bps": 98.55071601947985,
          "win_rate": 0.6766917293233082
        },
        "train_2020h2": {
          "absolute_return_pct": 5.3937717567656085,
          "cagr_pct": 10.991292742193437,
          "strict_mdd_pct": 7.388194316445807,
          "cagr_to_strict_mdd": 1.4876832242659463,
          "trades": 17,
          "mean_net_bps": 32.29214281075953,
          "win_rate": 0.6470588235294118
        },
        "train_2021": {
          "absolute_return_pct": 95.3882710786979,
          "cagr_pct": 95.4779318388201,
          "strict_mdd_pct": 11.334959447338877,
          "cagr_to_strict_mdd": 8.423314814878811,
          "trades": 56,
          "mean_net_bps": 123.072366018028,
          "win_rate": 0.7142857142857143
        },
        "train_2022": {
          "absolute_return_pct": 70.61119642457687,
          "cagr_pct": 70.67363484334903,
          "strict_mdd_pct": 9.094876870068846,
          "cagr_to_strict_mdd": 7.770708262795211,
          "trades": 59,
          "mean_net_bps": 92.9568080325173,
          "win_rate": 0.6440677966101694
        },
        "select_2023": {
          "absolute_return_pct": 23.08211246523586,
          "cagr_pct": 23.099621848311315,
          "strict_mdd_pct": 8.769049826536468,
          "cagr_to_strict_mdd": 2.634221757801897,
          "trades": 30,
          "mean_net_bps": 71.12686772686668,
          "win_rate": 0.5666666666666667
        },
        "select_2023_h1": {
          "absolute_return_pct": 20.722275632066168,
          "cagr_pct": 46.23232506376769,
          "strict_mdd_pct": 8.769049826536468,
          "cagr_to_strict_mdd": 5.272216030049424,
          "trades": 14,
          "mean_net_bps": 138.23074640521727,
          "win_rate": 0.7142857142857143
        },
        "select_2023_h2": {
          "absolute_return_pct": 1.954765034716499,
          "cagr_pct": 3.9176699080683886,
          "strict_mdd_pct": 3.226577054447588,
          "cagr_to_strict_mdd": 1.2141876180109141,
          "trades": 16,
          "mean_net_bps": 12.410973883309959,
          "win_rate": 0.4375
        },
        "pre_2024": {
          "absolute_return_pct": 340.29057296120584,
          "cagr_pct": 52.698813145039146,
          "strict_mdd_pct": 11.334959447338877,
          "cagr_to_strict_mdd": 4.6492282032302565,
          "trades": 163,
          "mean_net_bps": 93.50338197789462,
          "win_rate": 0.656441717791411
        }
      }
    },
    {
      "spec": {
        "contexts": [
          "dxy_momentum",
          "dollar_flow_rel_4h_30d"
        ],
        "tail": 0.2,
        "action_set": "tp4_time",
        "actions": [
          [
            1,
            400
          ],
          [
            1,
            1000000
          ],
          [
            -1,
            400
          ],
          [
            -1,
            1000000
          ]
        ],
        "risk_lambda": 0.5,
        "ridge": 10.0,
        "weight_mode": "uniform"
      },
      "dimensions": 103,
      "context_thresholds": {
        "dxy_momentum": {
          "mean": -0.00032874200917224725,
          "scale": 0.0027619575402231607,
          "low_threshold": -0.00150965405874902,
          "high_threshold": 0.0008072164735783604
        },
        "dollar_flow_rel_4h_30d": {
          "mean": 0.11028575038552495,
          "scale": 0.5162782890237811,
          "low_threshold": -0.33187024282027444,
          "high_threshold": 0.5486730452990237
        }
      },
      "action_counts": {
        "abstain": 1010,
        "long_tp4": 128,
        "long_time": 574,
        "short_tp4": 147,
        "short_time": 101
      },
      "stable_action_hash": "ab649f669c739c469d36121e13fada6e61ff1a6ddb0e8ad60335299ea11c3f28",
      "selection_schedule_hashes": {
        "train": "748d677df7db312383969b9a226e6808c819a3af631f23b7f9b893b681129830",
        "train_2020h2": "a788084000ef7802fac4cfb371f91f759cc8b228ea75b1a5132e85564f97c869",
        "train_2021": "9e72bfd77a8ef918fc5c5cf786bd7bec5e9c5934cbb414e018ee68ef1fba37c0",
        "train_2022": "32d0054bb6850aa366cc620ccfb64cdb9c6512319281fac3d026c22c1adf9e6f",
        "select_2023": "aed696d4563dbe84ed99d72c8c7eb9f8033d7ebd01a2a2e80c72cf068eacc4e5",
        "select_2023_h1": "8f57351738f219c63d15fb7d677a6c3880c642cfb65331ec79c988ef8fae7283",
        "select_2023_h2": "7e6ff690bbc9c17803b111dcfc970bff931296f46ffadf9d3ae2308a6b98114d",
        "pre_2024": "3fab21a471fff070d8fadaef9f239c8bc6d41ddbbd50fc15a09002436fcb6a41"
      },
      "selection_passed": false,
      "beats_base": true,
      "accepted": false,
      "score": [
        2.6250805037196043,
        3.4116292032060302,
        153.0
      ],
      "stats": {
        "train": {
          "absolute_return_pct": 204.48675689707284,
          "cagr_pct": 56.04224484748106,
          "strict_mdd_pct": 16.426827626758545,
          "cagr_to_strict_mdd": 3.4116292032060302,
          "trades": 124,
          "mean_net_bps": 92.71572173503512,
          "win_rate": 0.6693548387096774
        },
        "train_2020h2": {
          "absolute_return_pct": 6.21688806855476,
          "cagr_pct": 12.71862092184428,
          "strict_mdd_pct": 5.940875376697341,
          "cagr_to_strict_mdd": 2.1408664742795587,
          "trades": 16,
          "mean_net_bps": 38.9821676292202,
          "win_rate": 0.625
        },
        "train_2021": {
          "absolute_return_pct": 77.91557887153215,
          "cagr_pct": 77.98580101325499,
          "strict_mdd_pct": 16.426827626758545,
          "cagr_to_strict_mdd": 4.747465717983167,
          "trades": 51,
          "mean_net_bps": 117.23893163218406,
          "win_rate": 0.7058823529411765
        },
        "train_2022": {
          "absolute_return_pct": 56.026144895988935,
          "cagr_pct": 56.07369238692221,
          "strict_mdd_pct": 7.6827129835789325,
          "cagr_to_strict_mdd": 7.298683747105272,
          "trades": 56,
          "mean_net_bps": 81.55542285552139,
          "win_rate": 0.6428571428571429
        },
        "select_2023": {
          "absolute_return_pct": 15.257105030485295,
          "cagr_pct": 15.268315129779397,
          "strict_mdd_pct": 4.138857830497766,
          "cagr_to_strict_mdd": 3.689016572947404,
          "trades": 29,
          "mean_net_bps": 49.70383317916127,
          "win_rate": 0.5862068965517241
        },
        "select_2023_h1": {
          "absolute_return_pct": 16.2500449040764,
          "cagr_pct": 35.506598794505926,
          "strict_mdd_pct": 4.138857830497766,
          "cagr_to_strict_mdd": 8.578839923630735,
          "trades": 16,
          "mean_net_bps": 95.11883695162898,
          "win_rate": 0.75
        },
        "select_2023_h2": {
          "absolute_return_pct": -0.8541414968144312,
          "cagr_pct": -1.688384151683331,
          "strict_mdd_pct": 4.122898201253788,
          "cagr_to_strict_mdd": -0.4095139072727741,
          "trades": 13,
          "mean_net_bps": -6.191556079260594,
          "win_rate": 0.38461538461538464
        },
        "pre_2024": {
          "absolute_return_pct": 250.9426212007777,
          "cagr_pct": 43.12174494096644,
          "strict_mdd_pct": 16.426827626758545,
          "cagr_to_strict_mdd": 2.6250805037196043,
          "trades": 153,
          "mean_net_bps": 84.56314155124204,
          "win_rate": 0.6535947712418301
        }
      }
    },
    {
      "spec": {
        "contexts": [
          "usdkrw_momentum",
          "dollar_flow_rel_4h_30d"
        ],
        "tail": 0.2,
        "action_set": "sides_time",
        "actions": [
          [
            1,
            1000000
          ],
          [
            -1,
            1000000
          ]
        ],
        "risk_lambda": 0.25,
        "ridge": 100.0,
        "weight_mode": "uniform"
      },
      "dimensions": 103,
      "context_thresholds": {
        "usdkrw_momentum": {
          "mean": -0.0003996034733060004,
          "scale": 0.00267756427133271,
          "low_threshold": -0.0016093911398117596,
          "high_threshold": 0.0004658222593362802
        },
        "dollar_flow_rel_4h_30d": {
          "mean": 0.11028575038552495,
          "scale": 0.5162782890237811,
          "low_threshold": -0.33187024282027444,
          "high_threshold": 0.5486730452990237
        }
      },
      "action_counts": {
        "abstain": 821,
        "long_time": 997,
        "short_time": 142
      },
      "stable_action_hash": "3bac42968803f9d3cddc250ab27523583554ac96b548a15acb266a01c5e844b2",
      "selection_schedule_hashes": {
        "train": "b98431dd4d5f55434b6bd5176ba446697a63143fcbb102dc770e0ceb543c7719",
        "train_2020h2": "22c3bcab7b3d37453fbb55048b883e3ba78b8ea3a36fbce779646fb5b848c92f",
        "train_2021": "1ba9be0bb799fbe95545b495f11ef57771e5a1de86792db05cc579785853d652",
        "train_2022": "3941b502d297eabdd469efe4a86d7e9b375401647aa7b5e34916c3a6b66a595d",
        "select_2023": "296bd362ddb9ce21f8fe65a4b9a85a6612e4a6e0d4769f3973607f10da95c29d",
        "select_2023_h1": "8eeefad1af75f3d294c41529f5ed5d844b4ebb31848ec39cdba86301aa20cdc4",
        "select_2023_h2": "28cb0cfc9f93183ab4ed796b8959821a343870024a2818de83650f063cbdf2fc",
        "pre_2024": "b58b911992e75d23afc5570f8ff7c0c21573e9176455612e3ff5c5db38b90a6b"
      },
      "selection_passed": false,
      "beats_base": true,
      "accepted": false,
      "score": [
        2.5927700989517057,
        2.931783319847059,
        143.0
      ],
      "stats": {
        "train": {
          "absolute_return_pct": 178.85516939066218,
          "cagr_pct": 50.65409124021325,
          "strict_mdd_pct": 16.562675877740507,
          "cagr_to_strict_mdd": 3.058327749339711,
          "trades": 115,
          "mean_net_bps": 92.68567116951371,
          "win_rate": 0.591304347826087
        },
        "train_2020h2": {
          "absolute_return_pct": 11.999884634293245,
          "cagr_pct": 25.22745713124186,
          "strict_mdd_pct": 5.023311689473986,
          "cagr_to_strict_mdd": 5.022076807239397,
          "trades": 16,
          "mean_net_bps": 71.77540685969993,
          "win_rate": 0.75
        },
        "train_2021": {
          "absolute_return_pct": 101.86151460735213,
          "cagr_pct": 101.95865433609544,
          "strict_mdd_pct": 16.562675877740496,
          "cagr_to_strict_mdd": 6.155928854052101,
          "trades": 49,
          "mean_net_bps": 148.43203871830997,
          "win_rate": 0.673469387755102
        },
        "train_2022": {
          "absolute_return_pct": 21.13903703601494,
          "cagr_pct": 21.15494950821595,
          "strict_mdd_pct": 9.003180677396905,
          "cagr_to_strict_mdd": 2.3497195342671375,
          "trades": 49,
          "mean_net_bps": 41.94900297269113,
          "win_rate": 0.4489795918367347
        },
        "select_2023": {
          "absolute_return_pct": 25.302338034766116,
          "cagr_pct": 25.321697826139513,
          "strict_mdd_pct": 8.636960874537092,
          "cagr_to_strict_mdd": 2.931783319847059,
          "trades": 28,
          "mean_net_bps": 82.54040120893825,
          "win_rate": 0.6785714285714286
        },
        "select_2023_h1": {
          "absolute_return_pct": 24.79276712513101,
          "cagr_pct": 56.35291680326786,
          "strict_mdd_pct": 8.636960874537092,
          "cagr_to_strict_mdd": 6.5246233741087964,
          "trades": 14,
          "mean_net_bps": 161.7277529150691,
          "win_rate": 0.9285714285714286
        },
        "select_2023_h2": {
          "absolute_return_pct": 0.40833368902231104,
          "cagr_pct": 0.8121947021034304,
          "strict_mdd_pct": 3.4709428380835017,
          "cagr_to_strict_mdd": 0.23399829383300583,
          "trades": 14,
          "mean_net_bps": 3.353049502806999,
          "win_rate": 0.42857142857142855
        },
        "pre_2024": {
          "absolute_return_pct": 249.41204697730709,
          "cagr_pct": 42.943210774434284,
          "strict_mdd_pct": 16.562675877740507,
          "cagr_to_strict_mdd": 2.5927700989517057,
          "trades": 143,
          "mean_net_bps": 90.6991847436667,
          "win_rate": 0.6083916083916084
        }
      }
    },
    {
      "spec": {
        "contexts": [
          "kimchi_premium_change",
          "dollar_flow_rel_4h_30d"
        ],
        "tail": 0.2,
        "action_set": "tp4_time",
        "actions": [
          [
            1,
            400
          ],
          [
            1,
            1000000
          ],
          [
            -1,
            400
          ],
          [
            -1,
            1000000
          ]
        ],
        "risk_lambda": 0.25,
        "ridge": 10.0,
        "weight_mode": "year"
      },
      "dimensions": 103,
      "context_thresholds": {
        "kimchi_premium_change": {
          "mean": -0.00010959923262923176,
          "scale": 0.006074774108236574,
          "low_threshold": -0.00346509244294096,
          "high_threshold": 0.0014125494668928802
        },
        "dollar_flow_rel_4h_30d": {
          "mean": 0.11028575038552495,
          "scale": 0.5162782890237811,
          "low_threshold": -0.33187024282027444,
          "high_threshold": 0.5486730452990237
        }
      },
      "action_counts": {
        "abstain": 581,
        "long_tp4": 191,
        "long_time": 833,
        "short_tp4": 234,
        "short_time": 121
      },
      "stable_action_hash": "c20d4ece108a9001a2f30c6441099d93b9ccff3ae38cfa48220e90d396d2f137",
      "selection_schedule_hashes": {
        "train": "cd91fe181ec16ef19686393444a9f245f8dc811b07b83d9f34fe7a6387fd87a7",
        "train_2020h2": "4ccf774af283b94993f43175d1ffa89c7a881844b4a0e9235b691a10534c52e0",
        "train_2021": "1f899edfe3b7a78c959f9d054fe90e1b9dd393160bba74e8060f0b6c6898cf26",
        "train_2022": "6c7ab8aeaf7543cc42fda723afd58ffdcf28d918ff3488f3437fc3204e10742b",
        "select_2023": "225f65c3e54ddf7272282b834a93f694ca31d2fc02e11965c80be6ae48a065b6",
        "select_2023_h1": "711294f9267faa28c6c5db656112ff5a26bdff20a001be5c38854160fb177103",
        "select_2023_h2": "30730fef4ec44a6e21a05060525b612a1e06dd619bfe62ff4b852cb5d606f1a0",
        "pre_2024": "3301adc1aa9795abf0f0438754c9871f6370a06855a32e4b2cdaa68bb759aa8b"
      },
      "selection_passed": false,
      "beats_base": true,
      "accepted": false,
      "score": [
        2.5844744584413277,
        3.3892186848834545,
        165.0
      ],
      "stats": {
        "train": {
          "absolute_return_pct": 202.6923631479141,
          "cagr_pct": 55.67411112596983,
          "strict_mdd_pct": 16.426827626758556,
          "cagr_to_strict_mdd": 3.3892186848834545,
          "trades": 134,
          "mean_net_bps": 85.4608390901741,
          "win_rate": 0.6194029850746269
        },
        "train_2020h2": {
          "absolute_return_pct": 12.038177198762877,
          "cagr_pct": 25.312461640947227,
          "strict_mdd_pct": 4.542375520126052,
          "cagr_to_strict_mdd": 5.572516303153377,
          "trades": 19,
          "mean_net_bps": 60.63461169311305,
          "win_rate": 0.7368421052631579
        },
        "train_2021": {
          "absolute_return_pct": 111.5917829284693,
          "cagr_pct": 111.70043111883868,
          "strict_mdd_pct": 16.426827626758545,
          "cagr_to_strict_mdd": 6.799878446212209,
          "trades": 55,
          "mean_net_bps": 141.0437732539691,
          "win_rate": 0.6727272727272727
        },
        "train_2022": {
          "absolute_return_pct": 35.2441670118113,
          "cagr_pct": 35.2721368785065,
          "strict_mdd_pct": 8.17316430639854,
          "cagr_to_strict_mdd": 4.31560354792977,
          "trades": 59,
          "mean_net_bps": 53.32802884726761,
          "win_rate": 0.5254237288135594
        },
        "select_2023": {
          "absolute_return_pct": 14.059224693528893,
          "cagr_pct": 14.069502020971969,
          "strict_mdd_pct": 4.138857830497777,
          "cagr_to_strict_mdd": 3.399368279166004,
          "trades": 31,
          "mean_net_bps": 43.01875324587024,
          "win_rate": 0.5806451612903226
        },
        "select_2023_h1": {
          "absolute_return_pct": 13.040403275966007,
          "cagr_pct": 28.062875778001995,
          "strict_mdd_pct": 4.138857830497777,
          "cagr_to_strict_mdd": 6.780343014253016,
          "trades": 16,
          "mean_net_bps": 77.43962321073842,
          "win_rate": 0.6875
        },
        "select_2023_h2": {
          "absolute_return_pct": 0.9012896168422158,
          "cagr_pct": 1.797050543307388,
          "strict_mdd_pct": 2.9619516758722875,
          "cagr_to_strict_mdd": 0.6067116347460871,
          "trades": 15,
          "mean_net_bps": 6.303158616677518,
          "win_rate": 0.4666666666666667
        },
        "pre_2024": {
          "absolute_return_pct": 245.24856261303177,
          "cagr_pct": 42.45471643457586,
          "strict_mdd_pct": 16.426827626758556,
          "cagr_to_strict_mdd": 2.5844744584413277,
          "trades": 165,
          "mean_net_bps": 77.48687144669884,
          "win_rate": 0.6121212121212121
        }
      }
    },
    {
      "spec": {
        "contexts": [
          "dxy_momentum",
          "kimchi_premium_change"
        ],
        "tail": 0.2,
